tree
version=v4
num_class=1
num_tree_per_iteration=1
label_index=0
max_feature_idx=19
objective=binary sigmoid:1
feature_names=Column_0 Column_1 Column_2 Column_3 Column_4 Column_5 Column_6 Column_7 Column_8 Column_9 Column_10 Column_11 Column_12 Column_13 Column_14 Column_15 Column_16 Column_17 Column_18 Column_19
feature_infos=[-0.79616567460596099:1.2560199866628523] [-4.0506847809169004:2.4252794124874488] [-5.4491785059126778:4.127534797562098] [-6.8752164926790389:3.5210692835587984] [-6.063714323430534:0.90552932545106835] [-3.9931624771314644:3.119920931836595] [-4.6361622832304983:4.2584820027784254] [-0.69963934042017961:12.455198507321148] [-3.5249164089915617:4.4955252924964162] [-0.24840626377144387:23.650384297523015] [-0.53239712924172777:23.48143600731575] [-4.7922737749250741:2.719100800601872] [-2.3187752574869225:4.1200801052997056] [-0.9756618946378296:4.4792401773043276] [-0.45389318948628399:17.629557066905861] [-0.40856445387673146:11.025218034994454] [-2.5580523284248002:5.3765064653267061] [-1.7054315383580025:0.58636185476129088] [-0.73299049398157423:1.3642741730087673] [-1.9369591391030039:1.4982007564561652]
tree_sizes=2531 2075 2490 2511 2646 2849 3144 2411 2105 2609 2923 2604 2562 2662 2968 2700 2943 2810 2813 2743 3081 2827 2787 2978 2961 3132 2962 2595 3039 2798 2901 3073 2924 3050 2806 2875 2817 2732 2618 3087 3037 2688 2960 2887 2814 2891 2339 2580 2922 2982 3076 2771 2808 2727 2994 2810 3115 2662 2926 2712 3177 3015 2751 2802 2681 2678 2781 2944 2708 2821 2340 2645 2894 2773 2753 2737 2769 2919 2556 2462 2930 2686 2810 2699 2528 2714 2397 2742 2849 2663 2612 2660 2499 2856 2667 2392 2696 2760 2373 2319 2271 2431 2478 2544 2550 2427 2585 2671 2401 2588 2276 2498 2140 2543 2422 2128 2297 2376 2216 2479 2730 2383 2320 2606 2727 2519 2257 2059 2291 2125 2253 2232 1925 2229 2268 2673 2133 2235 2032 2375 2155 1882 2150 2176 2520 2035 2235 1955 2020 2189 2309 1843 2121 2587 2364 1972 2235 1897 2151 1915 2057 1922 2149 2343 2136 2125 1998 1973 2238 1987 1925 2332 1935 2054 1911 1767 1873 2120 2125 2104 1804 2029 1781 2043 2141 1583 1634 2053 1842 1894 2203 2069 1757 1938 2252 2025 1683 2066 2027 1841 1665 1738 1632 2022 1838 2041 1626 1844 1920 1921 1759 2293 1823 1658 1956 1992 1842 1659 1656 1848 2207 2001 1928 1670 1932 1754 1632 1354 1835 1829 1583 1582 1938

Tree=0
num_leaves=25
num_cat=0
split_feature=14 11 4 4 4 7 13 2 15 14 3 3 2 19 13 5 7 10 15 14 5 19 6 5
split_gain=89.0588 31.9802 27.5523 19.4499 10.1289 8.7235 7.77359 7.75236 8.1927 7.2801 4.87105 5.53273 4.19763 3.7314 5.51051 5.20458 3.62311 3.50327 2.85022 2.46789 2.42534 2.14329 0.998016 0.776334
threshold=-0.2680230211694079 -0.42673182558830952 0.19992109667033162 -0.18953475271592571 0.35606015082320447 -0.32162675858853224 -0.32643704415555913 -0.2838400029267793 -0.26607851192999271 0.046253063355612398 0.47383899279427322 -0.27692372030537432 1.1826113221711734 0.48482858726621042 -0.59104790055994882 -0.96834538193025277 0.13198833960944462 -0.11267860676047237 -0.033676019956455229 -0.02335580052673385 -0.79935501185322966 -1.2155755610355781 -1.1138831459709639 -0.5346450581107397
decision_type=2 2 2 2 2 2 2 2 2 2 2 2 2 2 2 2 2 2 2 2 2 2 2 2
left_child=2 3 7 18 12 9 10 -1 -9 -3 11 -6 16 15 -15 22 -4 -8 -2 -16 -5 -17 -7 -10
right_child=1 5 4 20 6 13 17 8 23 -11 -12 -13 -14 14 19 21 -18 -19 -20 -21 -22 -23 -24 -25
leaf_value=-0.1345958393503412 0 -0.14365838774277484 -0.25367963263912874 -0.036807177521965002 -0.0090084025050172212 0.089367017836533377 0.14365838774277481 -0.099761502700817281 0.040452339715590868 0.12057184836136781 0.026957356786864527 -0.21998194864933887 -0.054052803713639776 0.17320424886999528 -0.099761502700817309 0.063794204974566157 -0.030092829401769387 -0.040452339715590882 0.19397539436848615 0.052673915733834828 -0.20957384000432253 0.23608831321144716 -0.011979007992451995 0.16934239388445169
leaf_weight=2.5000000000000027 2.5 2.7499999999999991 26.750000000000004 3.7500000000000009 4.2500000000000027 3 2.75 2.5000000000000009 3.2500000000000009 3 2.9999999999999991 9.0000000000000018 4.7499999999999991 5 2.5 3.7499999999999991 2.4999999999999991 3.2499999999999991 3.5000000000000027 3.4999999999999982 7.7499999999999973 33 2.7499999999999991 8.2499999999999947
leaf_count=10 10 11 107 15 17 12 11 10 13 12 12 36 19 20 10 15 10 13 14 14 31 132 11 33
internal_value=0 0.111265 -0.117235 -0.0610182 -0.166036 0.162782 -0.0769864 0.0479861 0.0934924 -0.00721836 -0.127469 -0.162831 -0.216945 0.181062 0.080307 0.20236 -0.238077 0.0549897 0.131794 -0.0165875 -0.167368 0.222833 0.0468923 0.144848
internal_weight=149.5 76.75 72.75 17.5 56.25 59.25 22.25 16.5 14 5.75 16.25 13.25 34 53.5 11 42.5 29.25 6 6 6 11.5 36.75 5.75 11.5
internal_count=598 307 291 70 225 237 89 66 56 23 65 53 136 214 44 170 117 24 24 24 46 147 23 46
is_linear=0
shrinkage=0.149745


Tree=1
num_leaves=19
num_cat=0
split_feature=16 16 16 4 19 14 14 2 4 1 13 8 12 6 4 12 3 12
split_gain=117.851 42.4378 25.9462 14.7035 13.5666 12.43 10.8645 8.59165 7.90245 4.79135 4.77795 3.91514 2.1884 2.06277 2.03094 2.0133 1.71798 1.1945
threshold=-0.058048427943808371 -0.028812682390037921 0.57435877447507722 0.064262392686660952 0.072609399799110089 -0.18949606537057981 -0.055112331138999097 1.0506131790773996 0.36467779976793913 -1.1115933392949262 -0.067689322556708509 -0.49879883450376611 0.65270437037604478 -0.046525831649893296 0.46240654412382315 -0.38396872986362257 0.068859556045454615 -1.2696135363624719
decision_type=2 2 2 2 2 2 2 2 2 2 2 2 2 2 2 2 2 2
left_child=9 3 4 -2 -3 12 7 -5 16 -1 13 15 -4 -7 -9 -11 -8 -13
right_child=1 2 5 6 -6 10 8 14 -10 11 -12 17 -14 -15 -16 -17 -18 -19
leaf_value=0 0.068570389855103484 0.22294423441627581 -0.21335649988787808 -0.2351047454389816 -0.056149614667466916 0.0026308906398298179 -0.14505884946578912 -0.092448875660228164 0.13165740616532881 0.1229955753676939 -0.096537041430949169 0.074028599304348103 -0.024340995421312853 0.15408620435522932 0.042575285247248455 -0.016951565567773202 0 0.23948446087795255
leaf_weight=2.479050636291503 4.7238086163997641 13.889039590954782 7.9337083995342272 42.248809352517128 4.2306782305240622 3.7239881157875061 5.4606920927762967 3.9924058616161338 2.7258858382701874 4.2289018779993057 2.4770408570766431 3.4769000858068457 2.4877317249774933 3.7139241546392441 2.7327968776226044 2.7358418405055991 2.4880397915840149 32.464207872748375
leaf_count=10 19 56 32 171 17 15 22 16 11 17 10 14 10 15 11 11 10 131
internal_value=0 -0.0887071 0.034494 -0.161552 0.157571 -0.0781399 -0.181582 -0.210708 -0.0352047 0.196362 0.0385177 0.207605 -0.180128 0.0957425 -0.0377843 0.0735008 -0.108254 0.22831
internal_weight=148.213 102.829 38.4561 64.3724 18.1197 20.3364 59.6486 48.974 10.6746 45.3849 9.91495 42.9059 10.4214 7.43791 6.7252 6.96474 7.94873 35.9411
internal_count=598 415 155 260 73 82 241 198 43 183 40 173 42 30 27 28 32 145
is_linear=0
shrinkage=0.149745


Tree=2
num_leaves=23
num_cat=0
split_feature=18 14 19 8 11 4 14 4 3 8 4 4 11 19 14 19 19 10 3 11 11 19
split_gain=74.9058 31.554 18.4435 17.8674 9.73642 7.74939 6.98481 6.04074 5.21221 4.04239 3.96715 3.75831 3.40145 3.38599 2.53593 2.4115 1.84279 1.78522 1.39818 1.31289 0.708147 0.476006
threshold=1.0000000180025095e-35 -0.2680230211694079 0.41612538935502702 0.091663131249949986 -0.30265478493947556 0.30323650835356025 -0.055112331138999097 0.36467779976793913 0.068859556045454615 -0.49879883450376611 0.064262392686660952 0.38043176089082559 -1.0339268217395827 -0.4083129855791735 0.022670435612448782 1.4294975585449821 -1.2155755610355781 -0.22000787550308029 0.51110647700370204 0.2420053774113827 -0.78678374377012716 -0.099148594978848356
decision_type=2 2 2 2 2 2 2 2 2 2 2 2 2 2 2 2 2 2 2 2 2 2
left_child=1 10 16 4 -3 12 -7 9 19 -6 13 -8 -5 -1 18 -10 -2 -15 -9 -4 -18 -22
right_child=2 3 8 5 7 6 11 14 15 -11 -12 -13 -14 17 -16 -17 20 -19 -20 -21 21 -23
leaf_value=0.049154726355044143 0.049087819154620703 -0.21114526187371771 -0.0030626377178929469 0 -0.17124230242529553 -0.16022512600318958 -0.036667452378076448 -0.061293200249769232 0.14690394420455155 0.012071285282691262 -0.1836690006909554 0.14795567119169742 0.1872685517258538 -0.00023117683966943919 0.15233818606246824 0 0.074561376444281846 -0.16424527150101303 0.059967495697763218 -0.13437784123556173 0.23696351696480436 0.10013934650277681
leaf_weight=3.1877554506063461 3.3841910809278479 6.8408251404762295 3.17732986807823 2.6920889019966117 4.1852250695228612 2.7044560164213181 3.2189478129148466 2.4774723947048178 3.181758314371109 4.1604642868041974 38.250877797603607 3.6554738879203796 12.002886787056925 2.4808564186096191 2.8954728692770004 4.6184089183807373 3.6553236991167024 3.2213088274002057 2.452159658074379 3.3436988592147827 24.195215359330177 5.1096000820398393
leaf_count=13 14 28 13 11 17 11 13 10 13 17 159 15 50 10 12 19 15 13 10 14 100 21
internal_value=7.95355e-05 -0.0782639 0.144155 0.00825788 -0.0825734 0.0949039 -0.00866002 -0.0113574 0 -0.0919117 -0.162581 0.0694804 0.15723 -0.0543006 0.0735593 0.0745929 0.198559 -0.112772 0 -0.0873406 0.209985 0.220933
internal_weight=145.092 94.4263 50.6655 47.2855 23.0116 24.2739 9.57888 16.1708 14.3212 8.34569 47.1408 6.87442 14.695 8.88992 7.8251 7.80017 36.3443 5.70217 4.92963 6.52103 32.9601 29.3048
internal_count=598 389 209 194 94 100 39 66 59 34 195 28 61 36 32 32 150 23 20 27 136 121
is_linear=0
shrinkage=0.149745


Tree=3
num_leaves=23
num_cat=0
split_feature=18 4 19 13 4 4 11 1 0 3 10 13 4 6 3 12 2 19 4 11 19 5
split_gain=58.0265 18.3115 14.7015 13.227 11.8538 8.67307 9.85373 6.00038 5.21439 5.13631 5.08979 5.1705 4.61717 4.1462 3.15627 3.14194 2.54399 1.44117 1.4123 0.5585 0.375891 0.28692
threshold=1.0000000180025095e-35 0.30323650835356025 0.41612538935502702 0.59240728093391704 0.35606015082320447 0.46240654412382315 0.74060439466565897 -0.31455159241439123 1.0000000180025095e-35 -0.0037547625519874588 -0.29029258178254141 -0.84710341531403077 -0.48590939466120375 0.52273140265467799 0.79817043668572052 -0.35834164144294928 1.4511672048694841 -1.2155755610355781 0.62769558728159469 -0.78678374377012716 -0.099148594978848356 0.32860291422852123
decision_type=2 2 2 2 2 2 2 2 2 2 2 2 2 2 2 2 2 2 2 2 2 2
left_child=1 3 17 8 16 -6 9 -5 12 18 -4 -12 -1 -14 -11 -13 -3 -2 -7 -19 -21 -9
right_child=2 4 10 7 5 6 -8 21 -10 14 11 15 13 -15 -16 -17 -18 19 -20 20 -22 -23
leaf_value=-0.098248469387062068 0.044342880193082433 -0.19043276108661916 -0.14448792879080688 -0.059587367996515435 0.15383826886493912 -0.048878434918179253 0.10361579268409689 0.17458201650236169 -0.15531449745050063 -0.18024534605485176 0.1372495430113784 0.044946649154904483 0.14528026020792437 -0.054030339595023014 0 -0.12185581365756359 -0.01245917564394791 0.066978233835352688 0.065195268259598038 0.21431469324575605 0.089708315896241106 0.045857969704411611
leaf_weight=4.1490503698587444 3.3782477974891618 28.980446517467502 2.4127891510725012 2.378206118941308 2.6579315513372448 3.5735709220171037 4.3030529469251624 9.6833224445581383 6.3160284012556067 13.154304563999174 5.0777165442705146 3.6317714005708686 4.2080640345811871 2.4280960559844971 2.4306525737047187 3.0565135180950165 2.4541926681995383 3.6627387702465048 2.6333004385232925 23.025386452674869 5.0624030232429567 2.5449927151203164
leaf_count=17 14 125 10 10 11 15 18 41 26 56 21 15 18 10 10 13 10 15 11 100 21 11
internal_value=0.000261798 -0.0696106 0.128749 0.0213 -0.117061 -0.0425851 -0.0719531 0.119161 -0.0645924 -0.112742 0 0.0439546 0.00152303 0.0739677 -0.154514 -0.0385502 -0.178578 0.178517 0.000746444 0.189043 0.199289 0.158561
internal_weight=141.203 91.8952 49.3076 31.7078 60.1875 28.7528 26.0949 14.6065 17.1012 21.7918 14.1788 11.766 10.7852 6.63616 15.585 6.68828 31.4346 35.1288 6.20687 31.7505 28.0878 12.2283
internal_count=598 389 209 133 256 121 110 62 71 92 59 49 45 28 66 28 135 150 26 136 121 52
is_linear=0
shrinkage=0.149745


Tree=4
num_leaves=24
num_cat=0
split_feature=14 11 19 19 8 13 6 14 8 1 9 13 1 14 10 12 3 9 1 12 19 1 14
split_gain=37.0293 16.0828 10.6938 15.4096 9.57965 8.40709 7.49679 6.6008 4.5395 4.1737 4.12019 5.67481 2.48856 1.68149 2.83791 1.68045 1.61554 0.950573 0.872529 0.777494 1.65311 0.595205 0.0716322
threshold=-0.2680230211694079 -0.42673182558830952 -0.4083129855791735 -1.129696563646599 1.0265612436933342 -0.94145915955567749 1.3766172541115347 -0.26887488592901915 -0.49879883450376611 0.28322971774601025 -0.035235755294632749 0.6340569937761511 -0.41418181077445815 -0.19766113250169667 0.058350146683032893 -1.2531484665007959 -1.0000000180025095e-35 -0.098998644434048641 0.3828599361060771 0.63414414095939209 -0.71747737617949869 0.98064124626647864 -0.11459349409175165
decision_type=2 2 2 2 2 2 2 2 2 2 2 2 2 2 2 2 2 2 2 2 2 2 2
left_child=2 4 3 -1 16 -4 10 19 9 12 18 -12 -3 14 -10 -15 -2 -17 -7 20 -5 -20 -6
right_child=1 8 5 7 22 6 -8 -9 13 -11 11 -13 -14 15 -16 17 -18 -19 21 -21 -22 -23 -24
leaf_value=-0.15578492777783898 -0.14626621179229443 -0.0083880755022565263 0.070928721838084685 -0.021947641336736278 0.12667154628747626 -0.21254337890307037 0.035451211597244486 -0.053051860511830536 -0.052349175788088995 -0.084381774026195511 -0.12366028111632459 0.10159495812665045 0.13868338300833893 0.009277300784375251 0.12093470034509617 0.035505827993061664 -0.0032016514918119608 0.16410456318999345 -0.056021722615230238 0.1847413422939152 0.11383747597006656 -0.15689436731846479 0.03094962991528635
leaf_weight=6.8350947499275234 8.8320099115371704 3.6639140993356696 3.5644968897104254 2.2743468582630157 2.2842564284801483 18.442404866218567 4.1713246107101432 4.092863425612447 2.7526419907808295 3.4904988110065451 4.5398430079221752 2.3984208256006241 4.4092350602149954 2.3991519212722769 2.2228763401508331 2.9701123684644655 2.5765491127967843 31.859435126185421 7.2926607578992826 5.8048053234815598 2.94778972864151 4.162990614771843 2.5587058365344992
leaf_count=30 38 16 15 10 10 81 18 18 12 15 20 10 19 10 10 13 11 142 32 25 13 19 11
internal_value=0.000703005 0.0759161 -0.0780746 0.00662139 -0.0496659 -0.118871 -0.138133 0.0900011 0.114619 0.0245496 -0.159052 -0.0385759 0.0805054 0.136822 0.0336141 0.147909 -0.120336 0.155977 -0.182592 0.144681 0.0613252 -0.110534 0.101246
internal_weight=136.546 70.0194 66.527 21.9549 16.2515 44.5721 41.0076 15.1198 53.7679 11.5636 36.8363 6.93826 8.07315 42.2042 4.97552 37.2287 11.4086 34.8295 29.8981 11.0269 5.22214 11.4557 4.84296
internal_count=598 307 291 96 70 195 180 66 237 50 162 30 35 187 22 165 49 155 132 48 23 51 21
is_linear=0
shrinkage=0.149745


Tree=5
num_leaves=26
num_cat=0
split_feature=18 8 19 19 19 9 3 19 6 11 5 10 3 1 5 13 12 3 11 1 19 3 13 19 1
split_gain=42.7591 10.9266 10.2524 6.54673 8.42798 5.07082 4.32726 4.23965 4.2122 6.12137 4.65982 3.93764 3.6284 3.30166 3.12829 2.28944 2.27257 1.77521 1.64932 1.49865 1.14327 1.09955 0.560512 0.525279 0.0116197
threshold=1.0000000180025095e-35 -0.49879883450376611 0.41612538935502702 -1.3529819568579449 -0.4083129855791735 -0.091857873304133655 1.0476529403791675 -1.0266417667798238 -0.54462591166639285 -0.43634987216063686 0.49733363249893431 -0.29029258178254141 0.068859556045454615 -0.51381202913452506 1.7001456266012862 0.59240728093391704 1.2298893496912082 1.3766136680775072 0.49322506119296633 -0.31455159241439123 0.31307059248825198 -0.96662642916847152 -0.39366071692388799 -1.2155755610355781 0.78138080954634481
decision_type=2 2 2 2 2 2 2 2 2 2 2 2 2 2 2 2 2 2 2 2 2 2 2 2 2
left_child=1 6 21 -3 7 -6 16 -5 15 -10 13 -4 18 -11 20 -7 -1 -8 -13 -9 -12 -2 -14 -23 -15
right_child=2 3 11 4 5 8 17 19 9 10 14 12 22 24 -16 -17 -18 -19 -20 -21 -22 23 -24 -25 -26
leaf_value=-0.17722826576702599 0.048456107521804938 -0.14734339460725723 -0.12504994666468588 -0.032256426156195062 -0.15605112809467234 -0.16122373853751934 0.062390133569381764 0.012058753312527272 -0.12584172869475116 -0.0063708596656101473 -0.1258753739701795 0.032890944554860725 0.13829872045643324 0.16743403452746225 0.067140100077405174 0.0045508159836948709 -0.022792334692311903 -0.072926979281549772 -0.10026738285510682 0.1577000002294433 -0.0012068899012407316 0.048245101687105808 0.02169344955468969 0.17910478079176137 0.04469149262281203
leaf_weight=20.192127063870437 4.1524675488471976 6.2303081005811682 2.2583581358194342 3.8952404260635367 5.1904271692037538 3.7933192551136008 2.5925125926733008 2.6316656470298758 3.7989494353532818 3.771853610873225 3.2458615005016309 2.3914409279823285 3.6926026493310919 5.9674033969640785 3.3819075077772141 2.3127974718809128 3.354680895805358 2.4805728793144226 2.602777361869812 8.2133652269840223 3.0059169083833694 2.8182267397642127 2.619514763355256 25.393084734678272 2.2128307670354843
leaf_count=94 19 28 10 17 23 17 11 12 18 17 14 10 16 27 15 10 15 11 12 37 13 12 11 119 10
internal_value=0.000680791 -0.061034 0.114964 -0.0215566 -0.00146825 -0.0402077 -0.13391 0.087591 -0.0131014 0.0149341 0.0483555 0.00289273 0.04366 0.10502 -0.0256255 -0.109108 -0.159209 -0.00257924 -0.0416796 0.130714 -0.0821281 0.158714 0.107964 0.170387 0.150314
internal_weight=132.2 86.2717 45.9285 57.6518 51.4215 36.6813 28.6199 14.7403 31.4908 25.3847 21.5858 13.5647 11.3063 11.9521 9.63369 6.10612 23.5468 5.07309 4.99422 10.845 6.25178 32.3638 6.31212 28.2113 8.18023
internal_count=598 389 209 258 230 164 131 66 141 114 96 59 49 54 42 27 109 22 22 49 27 150 27 131 37
is_linear=0
shrinkage=0.149745


Tree=6
num_leaves=29
num_cat=0
split_feature=14 11 4 15 12 12 19 15 11 7 8 4 19 11 1 1 4 12 11 3 5 6 19 4 1 11 14 8
split_gain=26.0386 11.4492 8.90097 8.03631 5.90642 6.01693 4.98324 4.67315 4.41708 3.91378 3.21327 4.47864 4.96229 2.7463 2.29679 1.8243 1.75335 1.67648 1.49686 1.32469 0.84317 0.810773 0.859994 1.65194 0.929583 0.767552 0.501819 0.378571
threshold=-0.2680230211694079 -0.42673182558830952 0.064262392686660952 -0.033676019956455229 1.1457288245644224 -0.91589615609765718 -0.30525818871239846 -0.26607851192999271 1.4066294365985079 -1.0000000180025095e-35 -0.10515752400128874 0.34893377284874583 -0.30525818871239846 0.78784761808924564 0.28322971774601025 -0.51381202913452506 0.19992109667033162 0.54547120830106077 -1.6827262355940262 0.27141321099351179 0.085793358593562699 -0.6157830659544643 1.2749153632448194 0.62538883964309966 -0.61344224749459186 0.012509737253991049 0.4298581599363655 -0.3019781792525274
decision_type=2 2 2 2 2 2 2 2 2 2 2 2 2 2 2 2 2 2 2 2 2 2 2 2 2 2 2 2
left_child=2 3 7 19 5 14 20 -1 9 18 11 12 16 17 -4 -13 -3 -9 -7 26 -6 -12 23 -23 -24 -11 -2 -17
right_child=1 10 4 -5 6 8 -8 13 -10 25 21 15 -14 -15 -16 27 -18 -19 -20 -21 -22 22 24 -25 -26 -27 -28 -29
leaf_value=-0.099593310426170645 -0.15624014011789911 0.10479305521589484 -0.070418676837454758 0.099285879586903936 0.14240668198429998 -0.024553438183332606 -0.11307015321307398 0.15300412429937463 0.015217549022873846 0.029652313067569942 0.035493929438022348 0 -0.11937068003010701 -0.037549216073882639 0.074375945003557598 0.15977008712690194 -0.023672623044783909 0.0011873079273101487 -0.1857622708283925 -0.0014120484801488167 0.010057407560697409 0.17436467729146274 -0.012415115582641875 0.022990003318876719 0.092927500623051523 -0.061555528288129144 -0.03177273013359673 0.033066908096370896
leaf_weight=2.5474149733781806 5.8711826801300031 4.1091737002134323 2.5203591436147681 4.4531280249357215 2.4557996988296509 2.2922043949365571 2.0479732006788245 5.6946837157011014 3.187932386994361 2.4312053024768892 3.7489248514175442 2.5333231687545767 4.2885249853134173 2.2382758259773246 3.8387131094932556 5.9450383931398383 2.7097932398319244 2.4715127646923065 25.829982161521912 2.4911222457885733 2.3219569772481918 17.198781639337547 2.2905694544315338 2.7712143659591666 2.2172192037105551 2.1557648926973343 2.5293642431497574 2.2619600296020499
leaf_count=11 27 20 12 21 11 11 10 25 15 11 18 11 19 10 17 27 13 11 126 11 11 85 10 13 10 10 11 11
internal_value=3.85535e-05 0.065239 -0.0683018 -0.0432574 -0.0968352 -0.117122 0.0246242 0.037068 -0.139934 -0.155651 0.0992266 0.0485974 -0.0166014 0.0819464 0.0116162 0.110359 0.0570915 0.11761 -0.17557 -0.108956 0.101529 0.132476 0.143108 0.15793 0.0478936 -0.015286 -0.132975 0.139108
internal_weight=127.453 65.4193 62.0338 15.3448 49.0819 42.2562 6.82573 12.9519 35.8971 32.7092 50.0745 21.8478 11.1075 10.4045 6.35907 10.7403 6.81897 8.1662 28.1222 10.8917 4.77776 28.2267 24.4778 19.97 4.50779 4.58697 8.40055 8.207
internal_count=598 307 291 70 234 202 32 57 173 158 237 101 52 46 29 49 33 36 137 49 22 136 118 98 20 21 38 38
is_linear=0
shrinkage=0.149745


Tree=7
num_leaves=22
num_cat=0
split_feature=16 18 14 14 4 4 8 18 8 13 9 14 19 8 5 5 9 16 1 6 16
split_gain=48.283 15.5782 7.75566 6.66961 6.26772 4.55647 4.11878 3.40264 5.64674 2.71297 3.19093 2.58815 3.25488 2.34583 2.23583 2.12252 2.25968 1.70917 0.6317 0.185404 0.00598454
threshold=-0.058048427943808371 1.0000000180025095e-35 -0.19766113250169667 0.022670435612448782 0.36467779976793913 -0.10674251751213952 0.7805354246292856 1.0000000180025095e-35 -0.49879883450376611 -0.87993578357843771 -0.035235755294632749 -0.33780912483503239 -1.0266417667798238 -1.5321072745727693 0.57850439343403026 2.0719117775372262 0.025434044743388329 0.24786363010552215 0.28322971774601025 -0.54462591166639285 0.98228899286504923
decision_type=2 2 2 2 2 2 2 2 2 2 2 2 2 2 2 2 2 2 2 2 2
left_child=7 3 9 5 6 18 -5 8 -1 -3 14 -10 -13 -7 -11 16 17 -15 -2 -4 -19
right_child=1 2 19 4 -6 13 -8 -9 11 10 -12 12 -14 15 -16 -17 -18 20 -20 -21 -22
leaf_value=-0.080794785618466258 -0.034777566092180044 0.064638422206871618 0.035948551909814608 -0.13091582333787 0.11948634753937377 0 0.050960175803363594 0.18993552569900701 -0.013520238287378758 -0.13410286529506169 0.053760487163310722 -0.0082509832698879123 0.16324658989479041 -0.18948923588545674 0.0071064516190303822 -0.0047700562882546918 0 -0.021916322476131466 0.046256190389442176 0.15154579576583649 -0.088826926464341524
leaf_weight=2.5746965855360058 2.5055402964353553 3.7419645190238979 2.2920131832361221 6.2291831821203214 4.0489311814308158 2.384577900171279 2.8896064758300781 17.089632287621498 2.4583835899829909 6.9849324673414248 2.8638789504766455 2.5342533290386244 12.424704506993285 26.553301826119423 2.9089045524597168 2.5013202726840964 2.0853954702615729 2.4386692643165571 2.4342868775129318 6.6334686428308469 6.2053059339523315
leaf_count=11 11 17 11 27 19 12 13 88 11 32 13 11 62 137 14 12 10 11 11 34 31
internal_value=0.000451331 -0.0610911 0.0349113 -0.101753 -0.00484949 -0.127248 -0.0725146 0.139455 0.0832518 -0.0259315 -0.0586016 0.113855 0.135209 -0.142593 -0.0961361 -0.150876 -0.159487 -0.168046 0.00381815 0.13477 -0.0789284
internal_weight=122.783 85.7013 25.4252 60.2761 13.1677 47.1084 9.11879 37.0817 19.992 16.4997 12.7577 17.4173 14.959 42.1686 9.89384 39.784 37.2827 35.1973 4.93983 8.92548 8.64398
internal_count=598 415 121 294 59 235 40 183 95 76 59 84 73 213 46 201 189 179 22 45 42
is_linear=0
shrinkage=0.149745


Tree=8
num_leaves=19
num_cat=0
split_feature=16 16 16 19 2 6 14 14 11 11 13 19 8 13 8 10 14 11
split_gain=38.1246 11.9095 10.1745 6.24707 4.50608 5.19062 4.83245 4.22383 4.30223 2.81266 2.50912 2.05025 2.32366 1.21894 1.18279 1.14132 0.530449 0.302916
threshold=-0.058048427943808371 -0.028812682390037921 0.57435877447507722 -1.0000000180025095e-35 1.2988001555758701 1.5189315626876774 -0.055112331138999097 -0.18949606537057981 -0.57217354297579504 0.67972221961202928 -0.93973296836835363 -1.3529819568579449 -0.89244014500624347 -0.39366071692388799 -0.64641432594219517 -0.19518939355984768 0.45534319110187826 0.5900449842315304
decision_type=2 2 2 2 2 2 2 2 2 2 2 2 2 2 2 2 2 2
left_child=11 4 3 17 5 6 10 15 -9 -6 -2 -1 -13 -10 -8 -4 -16 -3
right_child=1 2 7 -5 9 -7 14 8 13 -11 -12 12 -14 -15 16 -17 -18 -19
leaf_value=0 0.0025563206809580013 0.16904290144352843 -0.0063888343398797514 -0.044566514301603077 -0.074008959739479574 0.037367522683757863 -0.075463935876714031 -0.11364528464687515 0.11763575485573166 0.089658523830332543 -0.16152464579588155 0 0.15001282048018025 -0.00058840854183576875 0.054857513746673997 -0.14864247462586977 -0.019347097918009801 0.033557431372618039
leaf_weight=2.8770040571689597 1.9090728759765578 8.8788978159427625 2.0546572506427783 3.7458498924970653 2.4553319662809363 3.6894344538450232 2.4428494423627853 2.1112379133701324 3.6730902791023254 3.4412188082933426 31.865976780653003 2.4988013654947308 29.408714026212692 2.4920534789562208 3.0493250340223303 6.447024941444397 2.1062145531177521 1.8776829987764347
leaf_count=13 10 46 10 17 11 17 11 10 18 15 172 13 157 12 14 32 10 10
internal_value=0.000762851 -0.0546232 0.0171291 0.103137 -0.0981357 -0.113791 -0.128738 -0.0589041 0.0154878 0.0174892 -0.152017 0.128515 0.138887 0.077949 -0.0138004 -0.123361 0.0244484 0.155212
internal_weight=117.024 82.2399 31.2805 14.5024 50.9594 45.0629 41.3734 16.7781 8.27638 5.89655 33.775 34.7845 31.9075 6.16514 7.59839 8.50168 5.15554 10.7566
internal_count=598 415 155 73 260 234 217 82 40 26 182 183 170 30 35 42 24 56
is_linear=0
shrinkage=0.149745


Tree=9
num_leaves=24
num_cat=0
split_feature=16 16 16 4 19 11 3 14 11 1 1 9 1 19 4 4 10 9 9 14 19 1 1
split_gain=29.8906 9.25873 8.31792 5.7168 5.26332 4.77272 5.61996 3.42531 3.66068 2.23453 2.05197 1.95402 2.93955 1.2016 1.34794 1.10888 0.966792 0.833419 0.83267 0.466179 0.429959 0.144512 0.0991903
threshold=-0.058048427943808371 -0.028812682390037921 0.57435877447507722 0.064262392686660952 -1.0000000180025095e-35 0.67972221961202928 0.038333495261767998 -0.18949606537057981 -0.57217354297579504 -1.1115933392949262 -0.21492137405432435 -0.06325511683053521 0.28322971774601025 -1.3529819568579449 -0.48590939466120375 0.41861751428334376 -0.19518939355984768 -0.07659041947807059 -0.035235755294632749 0.022670435612448782 -1.129696563646599 0.5821203728262111 1.0802714646265457
decision_type=2 2 2 2 2 2 2 2 2 2 2 2 2 2 2 2 2 2 2 2 2 2 2
left_child=9 3 4 -2 20 11 -7 16 -9 -1 -8 19 -13 -11 17 -10 -4 -15 -19 -5 -3 -14 -23
right_child=1 2 7 5 -6 6 10 8 15 13 -12 12 21 14 -16 -17 -18 18 -20 -21 -22 22 -24
leaf_value=-0.017431669562638457 0.056901904761489229 0.020515846024022868 -0.0058813467041463167 -0.17400626497300387 -0.04016589208403807 -0.11365883902452378 -0.022666831579339092 -0.10717498580970274 -0.010104656896518719 0.0053973521529003749 0.13356595517171882 -0.12992799611398548 0.020857895160669635 0 0.16261091938210112 0.10459303513188792 -0.13840698151933825 0.11038688862679054 0 -0.060185112519835486 0.15754614327913943 -0.03001915249954613 0.0019712519545759932
leaf_weight=1.9191389530897129 4.1903013586997977 1.5401426553726185 2.0530667304992694 17.224436268210411 3.732059299945834 4.2462901473045331 1.9409528225660322 2.0192694365978241 1.9103522747755031 2.2349498420953777 3.3898474872112274 6.1628443002700823 2.9616221338510513 2.6443298980593672 17.717983447015285 4.0870961099863052 6.0514535456895828 6.5333938002586356 1.928584069013598 4.1541447937488547 8.5698539614677411 1.9494931697845457 2.2949644476175308
leaf_count=10 19 8 10 102 17 25 10 10 9 10 15 34 14 14 102 21 32 37 10 19 48 10 12
internal_value=0.00064503 -0.0494234 0.0150652 -0.0887719 0.0946169 -0.104667 -0.00692867 -0.0547434 0.0130587 0.116772 0.0824555 -0.129381 -0.0671962 0.126185 0.134018 0.0715422 -0.114059 0.0705157 0.0898625 -0.159156 0.144635 0 -0.013911
internal_weight=111.457 78.4782 29.9633 48.5149 13.8421 44.3246 9.57709 16.1212 8.01672 32.9784 5.3308 34.7475 13.3689 31.0592 28.8243 5.99745 8.10452 11.1063 8.46198 21.3786 10.11 7.20608 4.24446
internal_count=598 415 155 260 73 241 50 82 40 183 25 191 70 173 163 30 42 61 47 121 56 36 22
is_linear=0
shrinkage=0.149745


Tree=10
num_leaves=27
num_cat=0
split_feature=14 11 4 19 19 17 19 1 9 14 2 14 19 19 5 6 6 12 9 5 14 12 12 14 6 5
split_gain=11.6456 7.91126 5.07071 4.71221 7.24036 4.90097 4.47078 4.01965 3.11488 2.56703 2.53591 1.91959 2.48187 2.37379 1.7386 3.27062 2.22606 1.2194 1.14813 0.790373 0.597433 0.570367 0.645899 0.345903 0.304568 0.183026
threshold=-0.2680230211694079 -0.42673182558830952 -0.18953475271592571 -0.4083129855791735 -1.129696563646599 1.0000000180025095e-35 0.31307059248825198 -1.0000000180025095e-35 -0.035235755294632749 -0.26887488592901915 1.2988001555758701 -0.15904310154903392 -0.4083129855791735 -1.2155755610355781 0.86603849431376656 1.1631457912473204 1.0919886369592493 -0.39419743940744451 -0.071547814669256249 -0.79935501185322966 -0.10901068502272497 0.63414414095939209 -0.38396872986362257 -0.18224124343970319 -1.1850403002590355 -0.57533991674440155
decision_type=2 2 2 2 2 2 2 2 2 2 2 2 2 2 2 2 2 2 2 2 2 2 2 2 2 2
left_child=3 2 20 4 25 6 -5 -8 10 21 -7 12 23 -13 16 -16 24 -10 -14 -4 -2 22 -6 -3 -15 -1
right_child=1 11 19 5 9 8 7 -9 17 -11 -12 13 18 14 15 -17 -18 -19 -20 -21 -22 -23 -24 -25 -26 -27
leaf_value=-0.018247821124113019 0.1001000115603521 0.10516291735427823 -0.019136768796283187 -0.12002876250180168 0.073333359820403635 -0.16249289846519485 -0.053579905343539687 0.12418226288178053 -0.066492165090879268 -0.024504647361502416 0 -0.013242081127233463 0.020601044936547165 0.029180010471804914 -0.084872349853643086 0.098624742444603009 -0.011890403172614691 0.049756564455538707 -0.087725414418040548 -0.1347795074886757 0 0.14550948263300714 -0.015898032127162495 0.0056773407490616828 0.14884011431835067 -0.12945320182662148
leaf_weight=1.5684427991509435 2.0702139437198639 3.0572879984974861 2.9726497977972022 2.9170269891619673 2.2416530400514603 16.035852961242202 3.279246322810649 5.1959538385272017 1.900924354791641 3.2514348998665783 2.4502890706062308 3.156191259622573 2.5581824481487274 1.9670379459858001 2.068061187863349 3.1697655692696571 1.7790830060839642 2.6402321681380299 3.0480757057666761 5.7758966088294956 2.5151555389165887 4.6947616189718246 1.8122478276491163 1.7384838163852689 18.708390690386302 3.5770706012845066
leaf_count=9 12 19 15 18 13 97 19 25 10 18 12 15 14 12 10 19 10 14 16 31 12 25 10 11 111 21
internal_value=0.000276433 0.0479116 -0.0469027 -0.0496813 0.0127476 -0.0804308 0 0.0560794 -0.117747 0.0753413 -0.142868 0.0797123 0.0176799 0.0978785 0.11127 0.0201022 0.128627 -0.000748992 -0.0425456 -0.107383 0.0630399 0.112232 0.0373346 0.0835755 0.141609 -0.111998
internal_weight=106.15 54.5845 13.3339 51.5651 17.1456 34.4195 11.3922 8.4752 23.0273 12.0001 18.4861 41.2506 10.402 30.8485 27.6923 5.23783 22.4545 4.54116 5.60626 8.74855 4.58537 8.74866 4.0539 4.79577 20.6754 5.14551
internal_count=598 307 70 291 96 195 62 44 133 66 109 237 60 177 162 29 133 24 30 46 24 48 23 30 123 30
is_linear=0
shrinkage=0.149745


Tree=11
num_leaves=24
num_cat=0
split_feature=16 18 18 2 3 19 16 4 16 19 3 3 16 6 15 2 2 16 4 4 11 13 10
split_gain=22.1838 10.9693 4.01329 3.23714 3.13297 2.97302 2.96014 3.43917 2.96066 2.83983 2.4253 1.97766 1.88514 1.93932 1.46379 1.48161 1.2355 1.19586 0.807597 0.983112 0.531199 0.449075 0.314234
threshold=-0.070855613804943277 1.0000000180025095e-35 1.0000000180025095e-35 2.0861506149104865 -0.0037547625519874588 0.41612538935502702 0.05063888969963426 0.064262392686660952 0.57435877447507722 -0.4083129855791735 0.043026853302149316 0.95038221963831682 -0.028812682390037921 1.0000000180025095e-35 -0.21312691434764561 0.63345248407612142 0.15350378513589641 0.98228899286504923 0.36467779976793913 0.62538883964309966 -0.10910195048189782 -0.84710341531403077 0.045646046514170445
decision_type=2 2 2 2 2 2 2 2 2 2 2 2 2 2 2 2 2 2 2 2 2 2 2
left_child=2 3 4 6 16 12 7 -2 9 -8 20 21 13 -3 15 -10 -1 -14 -9 -20 -6 -7 -16
right_child=1 5 -4 -5 10 11 8 18 14 -11 -12 -13 17 -15 22 -17 -18 -19 19 -21 -22 -23 -24
leaf_value=0.13498813764677239 0.026144381936092712 -0.070283978226683391 0.16467261333131702 0.066200245292952278 -0.0017839346765163148 -0.0019541206524153038 0.10782318135722246 -0.15207865646043922 -0.14700371142061128 -0.051099037850926024 0.065051011044989587 0.05990313040075284 0.14728278502349587 0.075797448361599531 0.028102832498843704 0 0 0.0016816791984448349 0 -0.094573047629437565 -0.099830173631189831 -0.087900316212803919 -0.033278284100581833
leaf_weight=5.6812402755022076 2.6574408859014538 2.273616522550582 12.98217908293009 1.7693302780389775 2.3675309121608734 2.5951699763536453 3.6130682304501534 19.473898090422157 4.7313759177923211 3.0314651578664806 3.2695558816194534 2.7616585940122604 6.1511854976415652 2.2689213752746582 2.1183513849973656 1.8576074689626692 2.2679509967565536 1.8955868333578108 2.9960799664258939 6.7058351635932922 2.9124992638826352 3.6905042529106122 1.7703602612018583
leaf_count=36 12 11 88 8 11 13 20 126 27 15 19 13 40 11 11 10 13 11 18 40 13 22 10
internal_value=2.12701e-05 -0.0443937 0.105974 -0.0817522 0.0470244 0.0418721 -0.0896577 -0.116164 -0.0329423 0.0374638 -0.0143075 -0.0200912 0.0847635 0.000270363 -0.0781985 -0.113416 0.105547 0.121627 -0.130549 -0.068536 -0.070371 -0.0632669 0
internal_weight=101.842 72.3615 29.481 50.7248 16.4988 21.6366 48.9555 31.8333 17.1222 6.64453 8.54959 9.04733 12.5893 4.54254 10.4777 6.58898 7.94919 8.04677 29.1758 9.70192 5.28003 6.28567 3.88871
internal_count=598 418 180 297 92 121 289 196 93 35 43 48 73 22 58 37 49 51 184 58 24 35 21
is_linear=0
shrinkage=0.149745


Tree=12
num_leaves=23
num_cat=0
split_feature=16 18 14 14 18 8 9 2 19 13 9 1 13 8 16 1 9 11 3 11 13 16
split_gain=17.8752 8.8214 3.65504 3.63498 3.60665 3.95412 2.33205 2.39288 1.78837 1.66985 1.96494 1.21539 0.991313 0.940853 1.41368 0.866892 0.838571 0.831142 0.828185 0.499587 0.262428 0.193973
threshold=-0.070855613804943277 1.0000000180025095e-35 0.022670435612448782 -0.19766113250169667 1.0000000180025095e-35 -0.2527730154397177 0.025434044743388329 1.0002280713210667 0.1413125977102935 -0.86664627849742681 -0.035235755294632749 -1.0000000180025095e-35 -0.9310877073035736 0.23927862268837904 -0.028812682390037921 -0.11529115569425745 1.0000000180025095e-35 0.29820311337315514 0.71466306975216176 -0.26673118239600307 -1.0000000180025095e-35 0.18032817448190067
decision_type=2 2 2 2 2 2 2 2 2 2 2 2 2 2 2 2 2 2 2 2 2 2
left_child=4 2 6 9 5 20 7 12 11 -3 13 -4 -2 14 -11 -7 -17 -9 -10 -5 -1 -13
right_child=1 3 8 19 -6 15 -8 17 18 10 -12 21 -14 -15 -16 16 -18 -19 -20 -21 -22 -23
leaf_value=-0.080975434235310353 -0.011712611621944003 0.059603238420698763 0.028707419343596365 0.017664805938844157 0.15752016915868394 0.0059962684682448742 0.022208288979554919 -0.059533843177021137 0.082668928603501793 -0.13355625413296646 0.049018550165754821 -0.11086966210472775 -0.13180272727883738 0.0057219372315240203 0.0070315424359468958 0.12474598540271754 0 0.031478499534040354 -0.011834635485724304 0.13534607920234898 -0.0010785400116955313 -0.017863465969938555
leaf_weight=2.4746948033571243 2.4244132712483397 3.7853108942508706 1.7338988333940504 2.0954545587301254 11.720276564359667 3.1331077963113829 2.5371030643582335 2.1971599832177153 3.6454673856496811 4.0701402127742767 2.4969167485833168 2.1316637396812421 26.111769251525406 1.8660512790083883 1.6065856739878652 7.0186271443962962 1.4587621986865995 3.2151960805058479 2.1816672682762146 4.9807899817824355 1.9244939610362095 2.2353557124733925
leaf_count=11 16 19 10 10 88 16 15 12 17 24 13 11 177 10 10 46 9 16 11 35 10 12
internal_value=0.000493219 -0.039978 -0.0743989 0.0384313 0.0986197 0.0428004 -0.0969564 -0.107102 -0.000251573 -0.00729572 -0.0394645 -0.051447 -0.123571 -0.074736 -0.0989235 0.085988 0.107344 -0.00827586 0.0501684 0.113438 -0.0597687 -0.0856682
internal_weight=97.0449 69.3149 48.4137 20.9012 27.73 16.0097 36.4856 33.9485 11.9281 13.825 10.0397 6.10092 28.5362 7.54278 5.67673 11.6105 8.47739 5.41236 5.82713 7.07624 4.39919 4.36702
internal_count=598 418 297 121 180 92 236 221 61 76 57 33 193 44 34 71 55 28 28 45 21 23
is_linear=0
shrinkage=0.149745


Tree=13
num_leaves=24
num_cat=0
split_feature=16 16 16 4 11 3 19 9 1 3 15 5 8 1 1 12 11 8 4 9 5 9 4
split_gain=14.3031 4.62226 5.26634 3.91106 3.45754 3.55976 3.26671 1.93511 2.53856 1.72713 3.05402 1.8926 1.70322 2.00516 1.32101 1.17917 0.721281 0.647847 0.642334 0.612751 0.548655 0.457284 0.0133726
threshold=-0.058048427943808371 -0.028812682390037921 0.57435877447507722 0.064262392686660952 0.67972221961202928 0.038333495261767998 -1.0000000180025095e-35 -0.06325511683053521 0.28322971774601025 0.47383899279427322 -0.21312691434764561 0.41608806935831372 -0.49879883450376611 -1.1115933392949262 -0.21492137405432435 -1.2696135363624719 0.63018305412250097 0.97735607988052442 -0.33784687139340103 1.0000000180025095e-35 0.681495395922324 -0.090108144818935504 0.62538883964309966
decision_type=2 2 2 2 2 2 2 2 2 2 2 2 2 2 2 2 2 2 2 2 2 2 2
left_child=12 3 6 -2 7 -6 16 17 22 10 -4 -12 18 -14 -7 -15 -3 -5 -1 21 -10 -17 -9
right_child=1 2 9 4 5 14 -8 8 20 -11 11 -13 13 15 -16 19 -18 -19 -20 -21 -22 -23 -24
leaf_value=-0.041935940551903916 0.05379885612929898 0.14137397026298409 -0.13518156393704314 -0.14544777699710848 -0.090574197194895206 -0.014252830719454447 -0.028181101233574 -0.12356735694658534 0.043209314229346062 0.031271527740105283 0.073019701175702334 -0.069555240775411045 -0.021919406141920013 0.0099130841210561607 0.11623296345781739 0.030814388695017701 0.0029298142675230326 -0.005866926799554327 0.042196843734663571 0.017972896469500215 -0.026650638079699855 0.1536557254600181 -0.022779053973425927
leaf_weight=1.9378216937184332 3.9905568957328788 6.9236668795347196 5.5846291780471793 15.485796906054022 3.3515841066837293 1.7556881904602049 3.4020452573895481 3.5469194427132624 4.1392882540822029 3.3903404772281638 2.9623612016439429 1.8835629522800443 1.6848711147904456 2.6810735836625161 3.1227366626262665 2.2658065110445103 1.3578557297587392 1.2628007233142842 2.6067664995789555 1.9464051276445378 2.4506047144532204 13.407024458050714 1.5618587881326673
leaf_count=11 19 47 35 114 25 10 17 24 22 19 17 11 10 14 15 15 9 7 17 14 14 102 10
internal_value=0.00103714 -0.0360248 0.0128744 -0.0664177 -0.0819309 0.00140852 0.0812774 -0.105365 -0.0455017 -0.0463464 -0.0741307 0.0107075 0.0906165 0.106704 0.0750311 0.119216 0.12527 -0.137612 0.00139037 0.13234 0.0146565 0.142064 -0.109661
internal_weight=92.7021 66.1723 25.5045 40.6678 36.6773 8.23001 11.6836 28.4473 11.6987 13.8209 10.4306 4.84592 26.5298 21.9852 4.87842 20.3003 8.28152 16.7486 4.54459 17.6192 6.58989 15.6728 5.10878
internal_count=598 415 155 260 241 50 73 191 70 82 63 28 183 155 25 145 56 121 28 131 36 117 34
is_linear=0
shrinkage=0.149745


Tree=14
num_leaves=27
num_cat=0
split_feature=18 16 19 14 3 4 3 4 13 16 13 5 1 2 12 11 4 16 14 1 12 13 5 1 12 1
split_gain=13.9116 5.01062 3.38676 2.74073 2.49961 2.44975 2.34555 1.79382 1.74274 1.71544 1.42518 1.31432 1.22411 1.1902 1.19135 1.01991 1.04519 0.936565 0.750458 0.481343 0.477056 0.28627 0.194549 0.178572 0.0872528 0.0391202
threshold=1.0000000180025095e-35 -0.058048427943808371 0.41612538935502702 -0.15904310154903392 -0.0037547625519874588 0.36467779976793913 0.043026853302149316 -0.3783699055699129 -0.39366071692388799 1.2913224887012098 -0.19834327244628475 2.2279982473264943 -1.0119631209348594 1.0990098028814324 -0.66835575378887946 0.54122327461009179 0.30323650835356025 -1.1485751840616147 -0.35660937180939961 1.3791621197067465 -0.87179748323650086 -0.84710341531403077 -0.046419814373262848 0.083969281025876363 1.2723554336761969 -1.2112235576549932
decision_type=2 2 2 2 2 2 2 2 2 2 2 2 2 2 2 2 2 2 2 2 2 2 2 2 2 2
left_child=1 4 9 7 10 15 17 -3 -7 18 -1 19 -4 14 -14 16 -5 -6 23 20 -9 -16 -8 -2 -22 -20
right_child=2 3 12 5 6 8 22 11 -10 -11 -12 -13 13 -15 21 -17 -18 -19 25 -21 24 -23 -24 -25 -26 -27
leaf_value=-0.00033763152238395865 0.048014732044140938 0.015476424610240491 -0.067600848905282576 -0.0036443981259527132 0.00053187606908413341 0.1090617013519517 0.079008362085333433 -0.024069062752875611 -0.02030418621152413 -0.016812403591596414 0.12629967814130943 0.0099946227152211183 -0.062298364625382463 0.10163125852512803 0.068559082009440719 0.010697393183843244 -0.11797479191649982 -0.11024968022134042 0.025623108145185113 -0.0057291329027997859 -0.13364518095286437 0 9.3709761238871357e-05 -0.0019785984610164241 -0.035618815112253177 0.14768585116406446
leaf_weight=2.460671439766883 1.573417149484164 2.3244709521532085 1.7675730288028706 3.2717578411102313 2.0183231830596924 3.0416975021362305 1.6209524199366572 2.6247272267937758 3.1894163936376563 1.3213528767228115 4.378774881362915 1.4964745566248883 2.5330306068062769 1.9114916324615476 1.6816515251994122 2.8430730327963829 4.2000629529356956 3.2618146538734418 1.3345430046320021 1.4858562871813763 17.140788346529011 1.9402907267212874 1.5620766952633856 1.4527194723486898 2.4304557740688315 13.669065035879607
leaf_count=14 11 13 11 18 10 17 13 18 18 8 35 10 14 11 10 14 25 15 9 10 135 13 8 10 16 112
internal_value=0.000870984 -0.0403413 0.0828153 -0.0654568 0.0300426 -0.0136227 -0.0218524 -0.0931945 0.0505918 0.116676 0.087796 -0.104346 0.00669391 0.0343975 -0.00218217 -0.0558489 -0.0805313 -0.0756494 0.128125 -0.112566 -0.117903 0.0428219 0.0583894 0.0280003 -0.126448 0.141947
internal_weight=88.5365 59.3514 29.1851 44.0488 15.3026 16.546 8.46317 27.5028 6.23111 19.3511 6.83945 25.1783 9.83404 8.06646 6.15497 10.3149 7.47182 5.28014 18.0297 23.6818 22.196 3.62194 3.18303 3.02614 19.5712 15.0036
internal_count=598 389 209 294 95 92 46 202 35 150 49 189 59 48 37 57 43 25 142 179 169 23 21 21 151 121
is_linear=0
shrinkage=0.149745


Tree=15
num_leaves=25
num_cat=0
split_feature=18 16 16 14 14 3 4 3 13 4 15 13 13 12 5 13 4 16 9 12 4 4 14 9
split_gain=11.1417 4.1107 3.29291 2.53305 2.23591 2.05075 2.02943 2.01656 1.5427 1.52733 1.45157 1.36299 1.27925 1.19057 1.14265 0.99691 0.94407 0.880261 0.753033 0.800894 0.808191 0.655143 0.586417 0.115714
threshold=1.0000000180025095e-35 -0.058048427943808371 -0.058048427943808371 -0.19766113250169667 -0.15904310154903392 -0.0037547625519874588 0.36467779976793913 0.063921189879621684 -0.052106476578066198 -0.3783699055699129 -0.35427691147624218 -0.86664627849742681 -0.19834327244628475 -0.66835575378887946 2.2279982473264943 0.84089806071249462 0.41861751428334376 -1.0342786967407724 0.025434044743388329 1.2298893496912082 0.19992109667033162 0.30323650835356025 -0.26887488592901915 -0.039845484480812494
decision_type=2 2 2 2 2 2 2 2 2 2 2 2 2 2 2 2 2 2 2 2 2 2 2 2
left_child=1 5 -2 11 9 12 10 17 -8 -3 -6 -4 -1 -5 18 23 21 -7 19 20 -11 -13 -18 -12
right_child=2 4 3 13 6 7 8 -9 -10 14 15 16 -14 -15 -16 -17 22 -19 -20 -21 -22 -23 -24 -25
leaf_value=-0.00030841186361655097 0.14349328789017426 0.01418195855940093 0.054955502638433955 0 0.028460059614676812 0 0.088163797545592559 0.062694866499182003 -0.037683767538717175 -0.016845036552068888 -0.12096110959760972 0 0.12039247460097414 0.13132755092979784 0.0093011442350167933 0.0063058406999022638 0.054328612816737593 -0.10336990354246145 0 -0.011657336927203306 -0.13320090114696001 -0.097037512126465927 -0.029535339464606427 -0.023102144182523626
leaf_weight=2.4608240947127333 9.0774401351809519 2.3212362006306675 3.5670627206563976 1.7388562336564062 2.5103693976998338 2.7427575290203094 4.1807304993271828 2.6122059300541878 1.8991689831018437 2.511586427688612 3.8675695434212694 1.8557206019759158 4.0222075879573822 4.3128020465373984 1.5010015666484822 1.7277129888534544 1.9481604695320132 2.9890796020627004 1.3862941041588772 2.5106505379080764 15.883210297673939 3.4780863523483276 1.8088447600603101 1.9692903459072111
leaf_count=14 88 13 19 11 14 14 24 18 11 13 23 11 35 34 10 10 12 14 8 17 141 23 11 10
internal_value=0.00119646 -0.0362561 0.0763673 0.0330762 -0.059565 0.028222 -0.012219 -0.0186841 0.0466374 -0.0854494 -0.0511381 -0.00604192 0.0819997 0.10013 -0.0962796 -0.0801231 -0.0369721 -0.0645947 -0.104399 -0.110943 -0.121239 -0.0700482 0.013793 -0.103834
internal_weight=84.8829 57.0959 27.787 18.7095 42.2688 14.8271 16.1548 8.34404 6.0799 26.114 10.0749 12.6579 6.48303 6.05166 23.7927 7.56457 9.09081 5.73184 22.2917 20.9054 18.3948 5.33381 3.75701 5.83686
internal_count=598 389 209 121 294 95 92 46 35 202 57 76 49 45 189 43 57 28 179 171 154 34 23 33
is_linear=0
shrinkage=0.149745


Tree=16
num_leaves=27
num_cat=0
split_feature=18 16 16 8 14 2 13 13 15 13 13 8 12 12 2 14 11 11 11 8 1 14 16 8 7 19
split_gain=9.08606 3.34649 2.92061 2.78075 2.13406 1.93163 1.78118 2.81178 2.15561 1.41035 1.11766 1.16549 1.31266 1.06945 0.962733 1.23738 0.939873 0.544958 1.96244 0.527433 0.781735 0.489461 0.405178 0.202942 0.185541 0.0570443
threshold=1.0000000180025095e-35 -0.058048427943808371 -0.058048427943808371 -0.2527730154397177 -0.19766113250169667 2.0861506149104865 -0.577004783342424 -0.77480625780846946 -0.047280824998826833 0.40921824274313401 -0.86664627849742681 0.33768895031399843 1.0565278796163098 -0.66835575378887946 0.052041762023547794 0.12533346729541103 -0.53910771724553908 0.74060439466565897 0.92481269527278243 0.9281509160677146 1.3791621197067465 -0.26887488592901915 0.05063888969963426 1.0757664075061437 1.0000000180025095e-35 -0.4083129855791735
decision_type=2 2 2 2 2 2 2 2 2 2 2 2 2 2 2 2 2 2 2 2 2 2 2 2 2 2
left_child=1 3 -2 -1 10 6 7 14 17 -10 -4 12 25 -6 15 -3 -5 19 -19 20 -8 -18 -16 -21 -23 -12
right_child=2 5 4 16 13 -7 8 -9 9 -11 11 -13 -14 -15 22 -17 21 18 -20 23 -22 24 -24 -25 -26 -27
leaf_value=-0.05965891655134542 0.13813790106698234 -0.11948328003490827 0.049816945791219175 -0.0034676237051871231 0 0.059199413309850089 -0.13260436319594457 0.083797704791777367 -0.05565781310681963 0.073912016174126419 -0.017625687843209049 0.035867399050226914 0.031690080838604313 0.12487516349576826 -0.031332581924184956 0.014508268019095695 0.0015886960905762196 0.051344271290323568 -0.090822950266026728 0.0043655036706075085 0 0.12401662696089175 0.039502655448686357 -0.047991877875130345 0.022528152042458432 -0.10535252306601819
leaf_weight=4.1137478575110444 8.1593012213706988 3.6808270402252656 3.5340050011873272 2.6683291941881171 1.7388562336564062 1.6190150529146183 13.7278323173523 3.1190854012966112 1.7844052612781589 2.1126146949827671 1.6898617371916786 2.2708978727459908 1.3439677283167837 3.9760485105216494 1.6704912260174754 1.3100596666336057 1.7287903353571881 2.0948980115354052 3.261907160282135 1.5816518142819398 1.2044059485197056 3.8239505514502508 1.8712593615055082 1.4945691898465154 2.059058777987957 3.5708243399858439
leaf_count=21 88 33 19 15 11 8 113 20 15 15 10 13 10 34 12 7 10 12 20 10 8 30 11 10 19 24
internal_value=0.00153693 -0.0327366 0.0713955 0.0260365 0.0305672 -0.0543088 -0.0619388 -0.00895664 -0.0819257 0.0121641 -0.00529267 -0.0338424 -0.0627835 0.093773 -0.0535221 -0.086784 0.0657939 -0.0981764 -0.033446 -0.111616 -0.123573 0.0882614 0.0029758 -0.0252131 0.104742 -0.0917312
internal_weight=81.2107 54.9269 26.2838 14.3939 18.1245 40.533 38.914 11.6517 27.2623 3.89702 12.4096 8.87555 6.60465 5.7149 8.53264 4.99089 10.2801 23.3653 5.35681 18.0085 14.9322 7.6118 3.54175 3.07622 5.88301 5.26069
internal_count=598 389 209 95 121 294 286 83 203 30 76 57 44 45 63 40 74 173 32 141 121 59 23 20 49 34
is_linear=0
shrinkage=0.149745


Tree=17
num_leaves=26
num_cat=0
split_feature=18 10 16 8 2 1 2 16 4 10 16 11 4 4 11 14 15 15 14 4 11 16 15 10 6
split_gain=7.40416 3.10939 2.72898 2.38469 1.81226 1.76342 1.64527 1.63079 2.50244 2.037 1.57893 1.18546 1.54847 1.00171 1.90145 0.789283 0.777204 0.861389 0.630027 0.577654 0.531098 0.582588 0.425539 0.400337 0.334623
threshold=1.0000000180025095e-35 -0.32556783253950949 -0.058048427943808371 -0.59720916212938546 -1.1312520419660415 -1.1115933392949262 2.0861506149104865 0.05063888969963426 0.064262392686660952 0.058350146683032893 0.80705327378424996 -0.66876007120304648 -1.1663551658574292 0.36467779976793913 0.74060439466565897 -0.3219919150510771 -0.18883435973338908 -0.25060938427143536 -0.26380180341212639 0.62538883964309966 -1.4606156970703799 0.39104818180353212 -0.21312691434764561 0.25047605663082778 -1.2561974545471066
decision_type=2 2 2 2 2 2 2 2 2 2 2 2 2 2 2 2 2 2 2 2 2 2 2 2 2
left_child=2 -2 3 -1 18 -5 7 8 -4 10 15 -7 23 24 19 -9 17 -12 -3 -15 -6 -22 -11 -13 -10
right_child=1 4 6 5 20 11 -8 9 13 22 16 12 -14 14 -16 -17 -18 -19 -20 -21 21 -23 -24 -25 -26
leaf_value=-0.092879297544455217 -0.069633306449112115 -0.055326058710463949 0.036182395583576582 -0.066453703602693773 0 -0.012793440165261238 0.055276919369537117 0 -0.0032179157543014542 -0.11310938816339926 0.013766724129558145 -0.032311969452213832 0.12558279011076678 0 0.06796666656296689 0.10691857415302482 0.029362553139304026 -0.099471530653376966 0.037071580936421274 -0.094607356482555416 0.11396096299222269 0.013116709381525447 -0.0044302535476992101 0.040059833191967091 -0.12652617860573478
leaf_weight=1.4566483795642842 1.8759144395589853 1.7594190239906313 2.514089077711108 0.98034586012363334 1.2890592142939663 2.3653088808059684 1.6031557172536839 1.99830075353384 0.96498244628310104 2.2123465761542325 1.3763544932007779 1.8791397586464857 5.9739445373415956 1.8959756791591633 1.3411665484309194 2.907085068523882 1.7920212373137481 2.102105170488358 1.2042939402163053 4.0214394330978394 16.341619029641148 2.4337259493768206 1.7189294919371594 1.4022716134786604 12.482597887516024
leaf_count=7 12 12 12 5 8 13 8 11 9 13 11 12 47 15 7 19 11 16 12 34 146 19 12 11 116
internal_value=0.00210911 0.0669513 -0.0291917 0.0242203 0.0831377 0.0490835 -0.0491969 -0.0565399 -0.0797778 -0.0123126 0.0228346 0.0679504 0.0891533 -0.0965297 -0.0348633 0.0733775 -0.0280249 -0.061383 -0.0136798 -0.0712221 0.0983198 0.10417 -0.0854551 0 -0.120438
internal_weight=77.8922 24.904 52.9882 14.0577 23.0281 12.601 38.9305 37.3274 23.2203 14.1071 10.1759 11.6207 9.25536 20.7062 7.25858 4.90539 5.27048 3.47846 2.96371 5.91742 20.0644 18.7753 3.93128 3.28141 13.4476
internal_count=598 209 389 95 197 88 294 286 193 93 68 83 70 181 56 30 38 27 24 49 173 165 25 23 125
is_linear=0
shrinkage=0.149745


Tree=18
num_leaves=26
num_cat=0
split_feature=18 19 19 10 4 8 1 12 11 4 10 8 8 4 19 19 4 9 6 4 10 4 6 9 13
split_gain=5.78042 2.8669 3.58435 2.59121 2.22532 2.84209 1.56131 1.51213 1.41595 1.33379 1.2406 1.80774 1.66171 0.921411 1.27265 0.859013 0.787951 0.592937 1.1208 0.457018 0.395595 0.349214 0.280328 0.241777 0.233536
threshold=1.0000000180025095e-35 -1.3529819568579449 -0.4083129855791735 -0.32556783253950949 0.35606015082320447 0.68212509700366619 -1.2112235576549932 0.7417052220454261 0.74060439466565897 0.46240654412382315 0.083364556200280313 -0.74482465356781447 1.2725870627573825 0.62769558728159469 1.4294975585449821 -1.2155755610355781 0.62769558728159469 -0.079119133629525495 0.095788476926249491 -0.21878619909100425 -0.24182276752393553 0.46240654412382315 0.59388855694274933 -0.029758454141687984 1.4888959071453047
decision_type=2 2 2 2 2 2 2 2 2 2 2 2 2 2 2 2 2 2 2 2 2 2 2 2 2
left_child=1 19 10 -2 5 17 -5 22 9 -6 11 -3 -12 14 15 -8 20 18 -4 -1 -11 -13 -7 -19 -17
right_child=3 2 4 6 8 7 13 -9 -10 16 12 21 -14 -15 -16 24 -18 23 -20 -21 -22 -23 -24 -25 -26
leaf_value=-0.0032944268029606095 -0.065219733959294035 -0.023563548350922971 -0.078934112511768545 -0.021419535959447226 0.070038370936545885 0 0 -0.058112676873451126 0.086689611084311349 0 -0.074995813212342277 0.12669882509529801 0.065508580841997135 -0.0055584474592048454 -0.0036406069887474127 0.12482379379741897 0.012597914969813892 -0.12208554119099485 0.034162077636182557 -0.13341623619646653 -0.092136208427806343 0.015272068328502008 0.084459381606443298 -0.020279438503935862 0.0066510277482719751
leaf_weight=1.1439895778894422 1.8284632787108446 2.0856427922844878 2.1100237332284406 2.3377547487616566 1.2822767347097377 1.1965901292860501 1.6303186193108672 1.731917157769203 2.3529926985502234 1.6850493215024456 2.3868631981313224 4.9790698923170558 1.6004190593957899 1.5682342201471318 2.0224999189376822 13.65667881071567 2.6729365661740303 9.7880131937563366 2.1631182283163071 4.1371515281498423 3.3070297390222563 1.7894290834665296 2.5819155871868134 1.930515736341486 0.97770457714796144
leaf_count=6 12 15 13 17 9 11 12 11 14 15 17 36 13 9 14 135 18 90 14 34 29 12 20 12 10
internal_value=0.00129586 -0.0268969 -0.0121345 0.0595628 -0.0383473 -0.0650545 0.074812 0.0201897 0.0128699 -0.015908 0.0499163 0.0771632 -0.0122443 0.0879215 0.0967326 0.109462 -0.043019 -0.0946452 -0.0251664 -0.116107 -0.0712487 0.109011 0.066902 -0.111752 0.119761
internal_weight=74.9466 50.9249 45.6438 24.0217 32.8024 21.5021 22.1932 5.51042 11.3003 8.94729 12.8414 8.85414 3.98728 19.8554 18.2872 16.2647 7.66502 15.9917 4.27314 5.28114 4.99208 6.7685 3.77851 11.7185 14.6344
internal_count=598 389 349 209 256 171 197 42 85 71 93 63 30 180 171 157 62 129 27 40 44 48 31 102 145
is_linear=0
shrinkage=0.149745


Tree=19
num_leaves=25
num_cat=0
split_feature=1 19 19 4 4 6 14 14 1 10 19 14 12 4 14 5 4 4 4 19 9 9 3 13
split_gain=4.2609 4.40866 5.22586 3.18997 3.28958 2.5804 2.42781 2.06366 1.90931 1.56566 1.46367 1.39257 1.11347 0.948548 1.10963 0.699971 0.667332 0.438618 0.39853 0.393339 0.315646 0.249701 0.248042 0.199523
threshold=-1.1115933392949262 -1.3529819568579449 -0.4083129855791735 0.34893377284874583 0.30323650835356025 -0.18884014022603604 0.11171988443958723 -0.085348665464958215 0.88101102790641173 0.5446768061346331 -1.2155755610355781 -0.18354953329661447 -0.87179748323650086 0.62538883964309966 -0.38645103367347455 -0.14114609309200019 0.75944167429478437 -0.10674251751213952 -1.1895695671757716 0.31307059248825198 -0.063533287494070265 0.013482832227746331 1.2503329445234235 -0.38595989187630314
decision_type=2 2 2 2 2 2 2 2 2 2 2 2 2 2 2 2 2 2 2 2 2 2 2 2
left_child=6 9 10 4 5 12 17 22 18 -2 -3 13 -4 15 -15 -5 -13 -1 -7 -20 -9 -12 -6 -14
right_child=1 2 3 11 7 8 -8 20 -10 -11 21 16 23 14 -16 -17 -18 -19 19 -21 -22 -23 -24 -25
leaf_value=-0.0062561498841933547 -0.13100073362155498 -0.0060770496199373924 0.027494437878445827 -0.015831180263841303 -0.13549887934556396 0.00083614003812906086 0.040190512850819135 0.033271460487941343 -0.043583475396468181 0.018716918175388321 0.1100248243860459 0.12134334713582073 -0.11093107732788925 0.035233263292828068 -0.084877794360586498 0.081118463739597052 0 -0.12896489110942272 0.012640267963067154 0.13290199917627663 -0.028029849802577562 0.012876240912628963 -0.017109654653476331 -0.013508973754493005
leaf_weight=1.3045822530984876 3.9805574193596831 2.5643225871026543 1.470312140882015 1.4722952023148539 6.5388437062501863 1.2696822509169576 1.7110850363969801 2.01281550526619 1.5372288413345812 1.2933073863387106 15.073016855865719 4.0471771880984289 2.0004982352256775 1.3443236574530604 2.3418980129063129 2.3590589612722397 1.6315106377005575 6.4954472407698614 1.6056659296154974 3.5628340244293213 1.8437443338334603 1.6556092463433731 1.4553198665380476 1.8045439347624781
leaf_count=8 33 17 10 11 70 13 12 14 11 8 149 32 10 9 21 17 9 57 15 21 11 14 13 13
internal_value=0.000707454 0.0157875 0.028963 -0.00333702 -0.0345044 0.0154503 -0.0838218 -0.0865291 0.0647783 -0.0959811 0.0888633 0.0516165 -0.0537526 0.00261904 -0.040169 0.0470876 0.0975209 -0.115583 0.0969936 0.111376 0.000766576 0.103694 -0.123129 -0.0875327
internal_weight=72.3757 62.8646 57.5907 38.2978 25.1015 13.2508 9.51111 11.8507 7.97541 5.27386 19.2929 13.1963 5.27535 7.51758 3.68622 3.83135 5.67869 7.80003 6.43818 5.1685 3.85656 16.7286 7.99416 3.80504
internal_count=598 521 480 300 201 93 77 108 60 41 180 99 33 58 30 28 41 65 49 36 25 163 83 23
is_linear=0
shrinkage=0.149745


Tree=20
num_leaves=28
num_cat=0
split_feature=16 3 19 19 10 18 8 1 16 19 1 1 8 6 1 5 1 0 16 11 12 16 4 11 8 10 5
split_gain=4.89089 3.14595 2.59731 3.28661 1.82173 1.64336 1.82295 1.6194 1.41722 1.34971 0.965106 0.873172 1.62 1.31114 1.01683 0.75984 0.737305 0.701091 0.696209 0.653002 0.642903 0.498986 0.502707 0.381553 0.224799 0.34399 0.222111
threshold=-0.18322279161130664 0.038333495261767998 -1.2155755610355781 -0.30525818871239846 -0.069890498691189476 1.0000000180025095e-35 0.091663131249949986 -0.31455159241439123 -0.73589064138331117 1.4294975585449821 -1.0000000180025095e-35 0.3828599361060771 -0.44959367069095646 0.095788476926249491 0.5821203728262111 0.32860291422852123 0.88101102790641173 -1.0000000180025095e-35 -0.028812682390037921 0.2420053774113827 -0.14263308502641289 -0.98088462853834735 -0.069778512457373931 0.037722060216177418 0.9281509160677146 -0.21285050995331575 0.49733363249893431
decision_type=2 2 2 2 2 2 2 2 2 2 2 2 2 2 2 2 2 2 2 2 2 2 2 2 2 2 2
left_child=5 2 -2 7 9 6 8 23 -1 16 -6 13 -13 -5 -14 -16 17 -3 20 -11 -9 -8 -23 -4 25 -15 -20
right_child=1 4 3 11 10 -7 21 18 -10 19 -12 12 14 24 15 -17 -18 -19 26 -21 -22 22 -24 -25 -26 -27 -28
leaf_value=-0.091579686555638196 -0.13495599897215624 0.12554800632596097 -0.072397546393444812 -0.12220345116679759 0.01598754271049848 0.12301057039321688 0.091878042696862672 -0.045135809590832014 0.03220123151534221 -0.059062687034931671 -0.092725281307505514 -0.089630839316084676 0.079911032749182792 0.0066821368478676311 0.028512512154624609 -0.071384360351808965 -0.00060131217333236453 0.014506438729727978 0.10661295426693336 0.026765702877976756 0.050236814993955582 -0.039796413011342298 0.049002190361283643 0.0078452124623227277 0.016056213725321771 -0.057260770286583371 0.0035223835462195384
leaf_weight=2.4978021383285522 4.7454707399010649 4.7849454246461391 1.3721332103013995 6.5360266752541083 2.1815953701734543 5.6309035718441001 4.2190290577709684 1.4119667932391169 2.3656106293201464 1.6314927786588658 1.9964769929647435 2.1911015547811985 2.3736871778964987 1.8931129015982144 1.8324976637959483 1.3818866126239298 1.5800498649477956 2.7912573367357272 3.9490944594144839 2.7569813169538975 1.3216387927532194 1.1881562471389773 0.92564180493354697 1.0612362511456011 1.3210769593715666 2.4757808186113839 1.1076001413166521
leaf_count=14 41 38 11 60 17 82 35 11 14 14 14 25 14 14 16 13 11 21 31 18 13 9 11 10 8 21 12
internal_value=0.000192543 -0.0221733 -0.0476141 -0.0264569 0.0267491 0.0667064 0.0237134 0.0372744 -0.0358738 0.0528213 -0.0448224 -0.0603498 -0.0132931 -0.0832926 0.0284171 -0.0205719 0.081344 0.0974445 0.0683337 -0.00974263 0 0.069794 0 -0.0441256 -0.0172574 -0.0323805 0.0938546
internal_weight=69.5243 52.6971 34.9743 30.2288 17.7228 16.8271 11.1962 10.2237 4.86341 13.5447 4.17807 20.0052 7.77917 12.226 5.58807 3.21438 9.15625 7.5762 7.7903 4.38847 2.73361 6.33283 2.1138 2.43337 5.68997 4.36889 5.05669
internal_count=598 433 300 259 133 165 83 88 28 102 31 171 68 103 43 29 70 59 67 32 24 55 20 21 43 35 43
is_linear=0
shrinkage=0.149745


Tree=21
num_leaves=26
num_cat=0
split_feature=16 19 19 16 18 12 3 12 8 4 16 12 10 8 4 1 4 19 5 5 12 12 4 4 4
split_gain=4.12773 2.11811 2.6853 3.07227 1.90707 1.52753 1.60654 2.24962 1.52434 1.28004 1.19729 0.979786 0.923701 1.66069 0.852491 0.627881 0.580304 0.520729 0.466733 0.387411 0.326202 0.431189 0.116107 0.0207442 0.00057221
threshold=-0.058048427943808371 -1.2155755610355781 -0.4083129855791735 -0.028812682390037921 1.0000000180025095e-35 0.54547120830106077 0.95038221963831682 -0.53877601489754512 -0.2527730154397177 0.30323650835356025 1.9204575980377852 -0.32679690672006428 0.026354971719111841 1.4694077180086211 0.36467779976793913 0.78138080954634481 -0.2072640874608335 -1.0000000180025095e-35 -0.26862609738421678 -0.57533991674440155 -0.31786144103972896 0.045631056997199458 -0.10674251751213952 -0.020286361914709453 0.62538883964309966
decision_type=2 2 2 2 2 2 2 2 2 2 2 2 2 2 2 2 2 2 2 2 2 2 2 2 2
left_child=4 -2 3 15 8 6 7 22 -1 23 24 18 -10 16 19 -3 -14 -7 -8 -11 -16 -22 -4 -9 -5
right_child=1 2 5 10 -6 17 11 9 12 14 -12 -13 13 -15 20 -17 -18 -19 -20 -21 21 -23 -24 -25 -26
leaf_value=-0.04697279794670213 -0.10336692709617475 -0.073222884249342202 -0.012358704580555869 0.12668794519565027 0.12056371942987786 -0.0026123255973569616 0 0.012402713171746986 0.091758682239457934 0 -0.017343210623178059 -0.028069176006339465 -0.086429196310518819 0.080301702379129508 0.048414539682920345 0.01930012633742411 0.0083459797413683 -0.11584866543762241 0.090555028120167427 -0.083177398043059472 -0.044051932659894419 0.028149704266115849 -0.099122135155719313 0.07688414813957424 0.016601496049901493
leaf_weight=3.6503068581223497 4.6042698696255675 2.6663112640380864 1.5480107665061948 5.2668410055339319 5.4520637560635796 1.6426133178174493 1.4030717015266416 1.8936551809310915 3.8365842960774899 1.0658255945891131 0.95919921994209278 1.8465531058609475 1.8532288745045662 1.7295109368860719 1.5586561635136602 1.1848277710378168 1.3439512625336647 3.7785368058830491 3.6065306589007378 3.0373602658510199 2.072756197303534 1.6036324277520178 6.2445733584463605 1.93651676923037 1.0547195896506307
leaf_count=21 44 23 8 54 88 17 9 11 33 12 6 13 11 18 11 8 12 40 23 34 18 11 52 13 8
internal_value=0 -0.0223442 -0.00979534 0.0483583 0.058462 -0.0313362 -0.0135755 -0.0342648 0.0179457 0.00392712 0.0985368 0.0412973 0.0503115 0 -0.0246209 -0.0440679 -0.0538491 -0.0935601 0.0705203 -0.0647856 0.0124792 -0.00993377 -0.0895617 0.0627761 0.118577
internal_weight=66.8401 48.9745 44.3702 11.1319 17.8656 33.2383 27.8171 20.961 12.4136 13.1684 7.28076 6.85616 8.76328 4.92669 9.33823 3.85114 3.19718 5.42115 5.0096 4.10319 5.23504 3.67639 7.79258 3.83017 6.32156
internal_count=598 415 371 99 183 272 215 170 95 110 68 45 74 41 86 31 23 57 32 46 40 29 60 24 62
is_linear=0
shrinkage=0.149745


Tree=22
num_leaves=26
num_cat=0
split_feature=16 19 4 4 16 4 6 10 16 2 5 4 19 12 13 8 8 5 1 1 1 10 1 4 5
split_gain=3.51229 1.97326 1.85685 2.3719 2.25788 1.80525 1.3969 1.32122 1.2389 1.41803 1.00044 1.28859 0.961399 0.926585 0.740887 0.72359 0.721248 0.687947 0.759761 0.679188 0.675824 0.523239 0.422829 0.163922 0.0746667
threshold=-0.18322279161130664 -1.3529819568579449 0.35606015082320447 0.30323650835356025 0.80705327378424996 0.62538883964309966 -0.54462591166639285 -0.069890498691189476 0.22622522293557409 2.3248593522021404 0.26881356236152504 -1.2609316425405594 0.96575097264449405 -0.27951782843816581 0.64404454611714701 0.091663131249949986 0.7805354246292856 0.7901927921611358 -0.81270268421472569 -0.11529115569425745 -0.91233290257479271 -0.20779153597140135 0.88101102790641173 -0.33784687139340103 1.2536349178041415
decision_type=2 2 2 2 2 2 2 2 2 2 2 2 2 2 2 2 2 2 2 2 2 2 2 2 2
left_child=10 -2 3 4 6 12 13 -8 9 16 11 14 22 -3 -1 23 24 18 -7 -20 -13 -21 -4 -12 -5
right_child=1 2 5 8 -6 17 7 -9 -10 -11 15 20 -14 -15 -16 -17 -18 -19 19 21 -22 -23 -24 -25 -26
leaf_value=-0.05406364473962344 -0.10985998192888603 -0.066748673264662828 0.10671380889323258 -0.11748220008204681 -0.089932951105448689 -0.045698980922939982 0.11242093394486549 -0.010992428402705699 0.019928712278036921 0.030819897849141652 -0.065315059620983149 0.0005672380358612742 -0.019632665824718492 0.035576687937218056 0.045266628511391314 0.047406994094064077 0 -0.064179349812701264 0.081031837107896854 0.039907055893800364 0.12388148947780891 -0.03780523475727094 0 0 -0.0090166037876027883
leaf_weight=1.3903372362256043 3.1470518466085187 2.1507460586726665 5.43025038763881 9.4547107089310849 1.9003838598728187 2.0254688821732998 4.6804264374077311 1.954331651329994 1.9387675225734717 1.0588283538818348 1.0140977427363398 1.5355955213308323 1.061084061861038 2.118816725909709 1.7598852775990961 1.7169568948447702 1.7096054032444943 2.239842176437377 2.0065823532640934 1.6430100388824938 6.4124927893280983 2.582542669028042 0.99246409535408009 1.4139894675463427 0.88563764467835504
leaf_count=9 35 16 53 106 11 18 32 18 19 6 6 12 8 16 18 23 13 19 13 14 81 19 8 16 9
internal_value=0 -0.0194572 -0.00890769 -0.0326376 0.012973 0.026444 0.0427068 0.0790605 -0.0699008 -0.0853553 0.0591044 0.0797212 0.0751231 -0.0171163 0 -8.81249e-05 -0.0997126 -0.0125152 0.00844469 0.034874 0.106649 -0.00131178 0.0941271 -0.0443773 -0.112584
internal_weight=64.2239 48.9806 45.8335 27.8523 12.8047 17.9812 10.9043 6.63476 15.0475 13.1088 15.2434 11.0983 7.4838 4.26956 3.15022 4.14504 12.05 10.4974 8.2576 6.23214 7.94809 4.22555 6.42271 2.42809 10.3403
internal_count=598 433 398 246 93 152 82 50 153 134 165 120 69 32 27 45 128 83 64 46 93 33 61 22 115
is_linear=0
shrinkage=0.149745


Tree=23
num_leaves=28
num_cat=0
split_feature=16 13 11 10 1 19 19 6 11 8 11 11 9 9 9 11 8 6 7 19 1 5 13 16 5 8 12
split_gain=2.8939 1.59034 2.02433 2.03836 1.43931 1.40245 1.6955 1.40862 2.09746 1.03464 1.1207 0.937602 0.880077 0.837192 0.790832 0.730792 0.71994 0.638948 0.6315 0.750534 0.540502 0.464446 0.453555 0.215019 0.198203 0.16318 0.185062
threshold=-0.058048427943808371 -0.577004783342424 -0.4732428931836013 -0.21538984407605866 -0.81270268421472569 -1.129696563646599 -0.099148594978848356 0.095788476926249491 0.54122327461009179 -0.1543626878140984 -1.4202319627933533 0.2420053774113827 -0.029758454141687984 -0.068257316984468949 -0.087548086422208113 -0.52112469871893963 0.6329199331908566 -0.90041168310674979 1.0000000180025095e-35 -1.0000000180025095e-35 0.78138080954634481 0.048912181716865198 -0.79120794831902497 -1.009763514792408 0.6762896688583061 0.6329199331908566 0.80235615612774169
decision_type=2 2 2 2 2 2 2 2 2 2 2 2 2 2 2 2 2 2 2 2 2 2 2 2 2 2 2
left_child=9 2 -2 20 25 -6 13 15 16 18 -11 24 14 21 -12 -8 -9 -15 19 23 -4 -7 -13 -1 -5 26 -3
right_child=1 4 3 11 5 6 7 8 -10 10 12 22 -14 17 -16 -17 -18 -19 -20 -21 -22 -23 -24 -25 -26 -27 -28
leaf_value=0 -0.071620156706961355 -0.11761384224915153 0.10749731241376521 0 -0.091832384903681577 0.025965198170671864 0.0048661065967172323 -0.085634647682897705 0.093267223753443471 -0.019195249579735812 -0.00038071990134274991 -0.081563697003126406 0 0 0.1283507248996103 -0.092075903924901586 0.01885348768024327 0.096001732972426701 -0.052063073072647507 -0.025659929410277747 0 -0.054648023624738237 0.0061504674233377457 0.083554381489237314 0.056224596485847468 -0.008073894451575709 -0.0039856357121924027
leaf_weight=1.1752819083631036 2.6558447889983663 3.9761650748550919 5.4465380311012259 1.5964294783771014 2.9341074116528061 1.4983173087239268 1.5525507405400309 1.9591520242393019 2.4342282675206661 1.3642111942172057 0.86282452754676242 2.3331749550998206 1.5681373160332404 1.6583477780222891 6.1855939049273738 5.5843903645872981 1.1188165098428724 4.0009737797081524 1.5116288065910337 1.9539954550564314 1.2149295732378957 1.1892333179712293 1.0109834484756 1.6916148103773596 1.3101111650466917 1.2267235256731508 0.88271675631403912
leaf_count=13 25 42 41 18 32 12 16 23 18 9 11 21 17 12 87 50 7 35 12 14 10 11 11 20 10 10 11
internal_value=0 -0.0194851 0.0171998 0.0433778 -0.0390496 -0.0181457 -0.000520002 -0.034243 0.0175077 0.0508874 0.0771437 -0.0148847 0.0950344 0.0455864 0.113415 -0.071972 -0.0505295 0.0724291 0 0.0279935 0.0919981 -0.0127713 -0.0582067 0.0647251 0.0338247 -0.0957708 -0.106687
internal_weight=61.897 45.5837 15.568 12.9122 30.0157 23.9301 20.996 12.6491 5.5122 16.3133 9.98077 6.2507 8.61656 8.34687 7.04842 7.13694 3.07797 5.65932 6.33252 4.82089 6.66147 2.68755 3.34416 2.8669 2.90654 6.08561 4.85888
internal_count=598 415 136 111 279 216 184 114 48 183 124 60 115 70 98 66 30 47 59 47 51 23 32 33 28 63 53
is_linear=0
shrinkage=0.149745


Tree=24
num_leaves=27
num_cat=0
split_feature=18 14 14 11 10 6 8 5 12 3 12 14 8 12 4 4 3 13 6 9 12 12 5 9 6 10
split_gain=3.38937 1.58919 1.5349 2.9713 2.17662 1.54216 1.3955 1.26351 1.20605 1.14048 0.910613 0.723759 0.633548 0.938854 0.614904 1.21347 0.980112 0.446717 0.375021 0.335317 0.414023 0.30023 0.293384 0.211071 0.323431 0.0302305
threshold=1.0000000180025095e-35 -0.26124521017373253 -0.2680230211694079 -0.43634987216063686 -0.24636956307561761 -1.4696689174113209 1.0265612436933342 -0.93347717490761106 -1.20120171616628 2.3207599063599917 -0.94922662433633931 -0.27937514521610873 -0.20356785162690808 1.2298893496912082 0.064262392686660952 0.3906588873548445 0.84600712541558476 0.36745259160270327 -1.0000000180025095e-35 1.0000000180025095e-35 0.49249411304670415 -0.10401678146134428 -1.0000000180025095e-35 -0.084807800235429512 1.0919886369592493 -0.22227065513106622
decision_type=2 2 2 2 2 2 2 2 2 2 2 2 2 2 2 2 2 2 2 2 2 2 2 2 2 2
left_child=2 11 4 6 12 -6 -4 -5 -3 17 -9 14 13 -1 -2 16 -16 -7 -13 20 23 -19 -22 -12 -25 -17
right_child=1 8 3 7 5 9 -8 10 -10 -11 19 18 -14 -15 15 25 -18 21 -20 -21 22 -23 -24 24 -26 -27
leaf_value=-0.06262672735739383 0.081766664678483883 -0.014143075204930286 -0.11635245220675203 -0.039947451441496931 0.034029339417398517 -0.12606094961680503 0.013098474874993543 -0.022295488027320919 0.12105866900495146 0.015797963950356837 0.00035757257273936192 -0.067296045149146555 0.067758703790459021 0.049460346455810392 -0.078253644192578339 0.076713135338173949 0.034317040359567771 0.012187068274472759 0.0082999460872459283 0 0.036117533924081194 -0.052190052383026098 -0.032036700921695513 0.10533110523235803 0.0087558301536833135 0.0054200222636888009
leaf_weight=1.9940412994474175 1.805838268250225 1.08514952659607 3.765132378786805 2.5884303487837377 1.1949241869151599 8.7242642361670679 1.921741124242544 1.9155081883072878 5.8460756577551347 1.0783032104372985 1.0978965535759933 1.566564988344908 1.8402995131909872 1.1479140147566793 2.8532578609883785 1.2247379533946516 1.1759972609579561 1.2704167999327185 1.2678322196006799 1.3476143479347218 1.1346024014055731 1.7191157042980183 0.88274446874856849 6.3550959415733708 1.7771298997104166 1.1636799219995735
leaf_count=27 20 11 34 19 10 100 17 13 97 7 8 13 13 8 25 11 11 11 10 11 14 19 9 52 17 11
internal_value=-0.000270806 0.0507995 -0.0239304 0.00190472 -0.0534221 -0.08138 -0.0772489 0.0341557 0.099004 -0.0964235 0.0515721 0.0093747 0.0228271 -0.0144523 0.0320834 0.000782465 -0.0414498 -0.10899 -0.0389881 0.0656045 0.0729717 -0.0262748 0 0.0845023 0.0916875 0.064096
internal_weight=59.7443 17.9891 41.7552 22.7859 18.9693 13.987 5.68687 17.099 6.93123 12.7921 14.5106 11.0579 4.98225 3.14196 8.22351 6.41767 4.02926 11.7138 2.8344 12.5951 11.2475 2.98953 2.01735 9.23012 8.13223 2.38842
internal_count=598 209 389 194 195 147 51 143 108 137 124 101 48 35 78 58 36 130 23 111 100 30 23 77 69 22
is_linear=0
shrinkage=0.149745


Tree=25
num_leaves=29
num_cat=0
split_feature=18 19 1 19 19 9 11 9 6 16 4 16 13 1 10 10 6 10 3 11 8 4 3 10 11 16 8 8
split_gain=2.83317 1.46019 1.41383 1.45606 1.79548 1.62324 1.37799 1.37266 1.31609 0.78263 0.756308 0.623318 0.863125 1.34728 0.522291 0.982974 0.50319 0.397906 0.372813 0.355752 0.524818 0.370671 0.345195 0.236393 0.235597 0.169951 0.131837 0.350565
threshold=1.0000000180025095e-35 0.41612538935502702 -1.4104839943751271 -1.2155755610355781 -0.4083129855791735 -0.091857873304133655 0.38078972586956233 0.025434044743388329 0.095788476926249491 1.2913224887012098 0.54344587712743297 -0.15335813273833401 -0.577004783342424 0.5821203728262111 -0.29029258178254141 -0.19518939355984768 0.16694563121432091 0.09193243425690456 -0.0037547625519874588 -1.2297044631333716 -0.64641432594219517 0.46240654412382315 -1.5238620151018909 0.10750637003669347 0.99808834395981683 -1.0342786967407724 -0.69561948975500476 -0.89244014500624347
decision_type=2 2 2 2 2 2 2 2 2 2 2 2 2 2 2 2 2 2 2 2 2 2 2 2 2 2 2 2
left_child=2 9 -1 25 19 -6 7 11 10 22 -8 18 13 -13 -3 -16 -17 -14 -7 -5 -21 23 -2 -22 -10 -4 27 -24
right_child=1 14 3 4 5 6 8 -9 24 -11 -12 12 17 -15 15 16 -18 -19 -20 20 21 -23 26 -25 -26 -27 -28 -29
leaf_value=-0.09332254403714689 0 -0.059132161421085884 -0.0018805375579003 -0.003142541895981019 -0.096070788126680517 0.049990906181531639 -0.062894234574015398 0.060015156379017963 0.10518436636367579 -0.015642171430786389 0.039980400034154207 0.051657168231382521 -0.11130727571952349 -0.075477370823952145 0.068551178685297004 -0.060630297848184876 0.021649178720429721 0 -0.02452152616144921 -0.00011974283221071709 0.11394218244106451 0 0.054183973591970094 0.009029096420514398 0.0082782120236552063 -0.086503544815823979 0.11199560305085515 -0.016932784648864364
leaf_weight=3.6706968974322072 0.48917523771524507 1.0817250236868856 1.2470914795994756 1.1757592521607874 3.0750503279268768 0.94202802702784572 1.8945187274366611 1.5307054705917824 2.8693217076361179 0.87949951365590173 1.0018632374703882 2.4707422330975555 4.0398126989603007 1.5066223889589307 2.3463543578982349 2.0676369927823544 1.2206666991114614 1.1845133304595945 1.3472150824964071 1.5848484970629213 3.2055169306695479 1.1300668008625505 1.852077476680279 1.3985426090657709 1.5742585137486456 3.5452609173953524 6.2031700499355784 0.98817622289061446
leaf_count=41 8 10 7 10 28 13 18 13 22 8 8 19 51 17 19 17 13 13 11 13 27 9 22 16 13 40 101 11
internal_value=0 0.0481243 -0.0216052 -0.00988477 0.0025858 -0.0184441 0 -0.0280837 0.0458488 0.0791173 -0.0212844 -0.0478877 -0.0632959 -0.00148002 -0.00409237 0.0154841 -0.0292251 -0.0950226 0.00965946 0.0556707 0.0661103 0.0827788 0.090754 0.0967464 0.0863962 -0.0740979 0.0965495 0.0280757
internal_weight=57.5229 17.1285 40.3944 36.7237 31.9314 23.4367 20.3616 13.0216 7.33996 10.4121 2.89638 11.4909 9.20169 3.97736 6.71638 5.63466 3.2883 5.22433 2.28924 8.49473 7.31897 5.73413 9.5326 4.60406 4.44358 4.79235 9.04342 2.84025
internal_count=598 209 389 348 301 226 198 137 61 150 26 124 100 36 59 49 30 64 24 75 65 52 142 43 35 47 134 33
is_linear=0
shrinkage=0.149745


Tree=26
num_leaves=27
num_cat=0
split_feature=18 16 19 14 19 6 11 8 4 13 13 4 14 12 4 14 11 13 7 10 5 11 16 16 10 4
split_gain=2.29059 1.35699 1.1645 1.42433 2.12185 1.42487 1.42079 1.2313 1.65004 1.20546 1.20407 1.62518 1.03679 1.36479 0.745266 0.918515 0.710244 0.604791 0.680004 0.431466 0.503368 0.417674 0.312137 0.284493 0.150155 0.0113384
threshold=1.0000000180025095e-35 -0.058048427943808371 -1.3529819568579449 -0.055112331138999097 -0.4083129855791735 1.3766172541115347 -0.43634987216063686 -0.10515752400128874 0.36467779976793913 -0.94145915955567749 0.59240728093391704 0.66926203485683267 -0.19766113250169667 -1.2531484665007959 -0.10674251751213952 -0.26887488592901915 0.094752526240893267 -0.87993578357843771 1.0000000180025095e-35 -0.25054384853411199 -1.0000000180025095e-35 0.012509737253991049 -1.0555431948707741 1.3728770399115067 0.5446768061346331 -1.02790110033205
decision_type=2 2 2 2 2 2 2 2 2 2 2 2 2 2 2 2 2 2 2 2 2 2 2 2 2 2
left_child=2 -2 24 4 14 9 -5 8 -8 -6 11 22 17 -14 25 -16 -17 -3 19 -19 -21 -12 -11 -24 -1 -4
right_child=1 12 3 6 5 -7 7 -9 -10 10 21 -13 13 -15 15 16 -18 18 -20 20 -22 -23 23 -25 -26 -27
leaf_value=-0.099188448639895732 0.10569145419419082 0.034409152496314557 0.0098273166899922743 -0.055547811602382237 0.031054111101282984 0.036429454398155751 -0.072402909772383992 0.094201188283155005 0.07254338638740658 -0.0045992449647788512 0.031499411640879459 0.026108638276961572 -0.043908697946483735 0.1021609631731103 0.048265734991238013 -0.083745567126846679 0.017062722236201443 0.00036404097404565576 0.030711768484021108 -0.1016838413687859 0 -0.041358342691293036 -0.14098574807516479 -0.0093262533582715457 -0.00072111233311373201 0.082994666598599914
leaf_weight=2.5321191195398565 3.8595017287880209 2.1649302691221237 1.3300310783088209 1.5221436135470856 1.1187691912055004 1.8117884583771218 2.1305831335484977 5.2410220988094798 1.361479267477989 0.9429011791944476 1.9189446754753583 0.99481843784451562 0.64923688024282489 2.9247834403067801 2.071259181946516 2.0240420326590525 1.3263939246535299 1.6319067813456047 1.1546265110373495 2.498183604329824 1.5880184061825287 1.5200901627540586 7.6244286652654463 1.0148631557822225 0.87251947075128544 1.7327639162540434
leaf_count=34 88 17 12 14 8 13 15 47 11 7 18 9 4 41 14 20 13 17 9 21 12 15 103 13 6 17
internal_value=0 0.0438195 -0.0199548 -0.0091685 -0.0281723 -0.0571924 0.0334381 0.0577216 -0.00658852 -0.0722827 -0.0844139 -0.106242 0.0126413 0.0660162 0.0276743 -0.00543797 -0.0478592 -0.0140398 -0.0356238 -0.055874 -0.0750437 0 -0.123729 -0.131745 -0.0868437 0.0708062
internal_weight=55.5621 16.4712 39.091 35.6863 25.4311 16.9466 10.2552 8.73308 3.49206 15.1348 14.016 10.577 12.6117 3.57402 8.48449 5.4217 3.35044 9.03767 6.87274 5.71811 4.0862 3.43903 9.58219 8.63929 3.40464 3.06279
internal_count=598 209 389 349 262 186 87 73 26 173 165 132 121 45 76 47 33 76 59 50 33 33 123 116 40 29
is_linear=0
shrinkage=0.149745


Tree=27
num_leaves=24
num_cat=0
split_feature=1 19 19 4 0 4 14 11 3 5 19 9 14 16 16 9 12 4 5 5 4 8 8
split_gain=2.0445 1.91206 1.94636 2.03895 1.71554 1.77496 1.42675 1.20911 1.18032 1.15688 1.96845 0.854143 0.634022 0.631681 0.560097 0.639204 0.625798 0.499486 0.379301 0.232635 0.107168 0.0110529 0.0259646
threshold=-1.1115933392949262 -1.3529819568579449 -0.4083129855791735 0.34893377284874583 1.0000000180025095e-35 0.30323650835356025 0.11171988443958723 -1.5817668999014598 1.141549369145374 -0.88899975442601742 -0.16785179289003171 -0.10165799148741654 0.92180742244757174 0.29085548942088185 1.9204575980377852 0.03376413413291237 -1.2696135363624719 -0.21878619909100425 0.86603849431376656 0.19041422190264723 -0.10674251751213952 -0.89244014500624347 -1.1876711278831016
decision_type=2 2 2 2 2 2 2 2 2 2 2 2 2 2 2 2 2 2 2 2 2 2 2
left_child=6 17 7 4 5 9 20 -3 -7 -4 -11 -5 -6 18 15 16 -9 -2 -13 -15 -1 22 -18
right_child=1 2 3 11 12 8 -8 14 -10 10 -12 13 -14 19 -16 -17 21 -19 -20 -21 -22 -23 -24
leaf_value=-0.0066193262154480856 0.000977061900767136 -0.040295392224523649 -0.025030645273467347 -0.036227486654968555 -0.093806239463480462 -0.096992954554366614 0.031965221310740449 0 0.026537316215515624 -0.044407499379850314 0.11919359595299336 0.096811639943555711 0.0038228952732206195 -0.031195320063193102 -0.0090100177924533013 0 0.028191155013508298 -0.096429780363450998 0.0028739553839608996 0.027995966728066347 -0.10645533855060892 0.11360816384557323 0
leaf_weight=0.98401084169745434 1.0315627530217173 0.91284843906760116 2.0718095581978551 0.88432955741882224 6.1672334000468245 2.752168083563447 1.3473283387720583 1.3590320758521528 1.4567639380693433 1.0007504001259793 4.1043113097548556 5.240027651190756 1.187207370996475 1.2935787849128249 0.82049011066556055 1.4100313410162932 0.83488978259265423 2.4288557320833197 1.7810105942189691 1.0173359401524065 4.3609803617000571 8.0919593451544642 0.73174353688954841
leaf_count=8 8 7 17 9 67 43 12 11 12 9 45 55 8 10 7 13 11 33 15 10 57 121 10
internal_value=0 0.0121124 0.0220602 -0.000363376 -0.0296243 0.00657022 -0.0675523 0.0640624 -0.0557007 0.0492044 0.0809561 0.0480145 -0.0781653 0.0623932 0.0765651 0.0840725 0.0946793 -0.0731141 0.0807397 0 -0.0972235 0.106077 0.0211882
internal_weight=53.2703 46.5779 43.1175 28.9565 18.7402 11.3858 6.69232 14.161 4.20893 7.17687 5.10506 10.2163 7.35444 9.33195 13.2481 12.4277 11.0176 3.46042 7.02104 2.31091 5.34499 9.65859 1.56663
internal_count=598 521 480 300 201 126 77 180 55 71 54 99 75 90 173 166 153 41 70 20 65 142 21
is_linear=0
shrinkage=0.149745


Tree=28
num_leaves=28
num_cat=0
split_feature=18 10 1 19 9 2 6 11 12 14 1 14 13 13 19 12 14 13 1 6 6 11 11 10 13 14 13
split_gain=1.86049 1.06079 1.01882 0.998879 1.1203 1.13446 0.896659 1.28294 1.0641 0.76953 0.759487 0.684516 0.542563 0.496171 0.721094 0.49342 0.485172 0.447517 0.341592 0.274647 0.18324 0.116059 0.0859106 0.0715163 0.0465681 0.0453399 0.00209915
threshold=1.0000000180025095e-35 -0.32556783253950949 -1.4104839943751271 -1.2155755610355781 -0.098998644434048641 -0.48981211028785682 -0.7580973745306071 -0.66876007120304648 0.27715060106671791 -0.26124521017373253 0.18359949938594328 -0.40554969726648255 -0.89919723181239875 -0.87993578357843771 -0.099148594978848356 -1.2531484665007959 -0.25153467603092022 0.99597419701077006 -0.11529115569425745 -0.97156883739482125 0.23810278550239231 0.1263197542918883 -0.10910195048189782 -0.031638129374305927 -0.22188701939187791 -0.088929664888647203 -0.47465527683613323
decision_type=2 2 2 2 2 2 2 2 2 2 2 2 2 2 2 2 2 2 2 2 2 2 2 2 2 2 2
left_child=2 -2 25 21 -5 16 8 23 18 10 13 -9 -13 -3 24 -11 19 -14 -7 -6 -18 -4 -20 -8 -15 -1 -12
right_child=1 9 3 4 5 6 7 11 -10 15 26 12 17 14 -16 -17 20 -19 22 -21 -22 -23 -24 -25 -26 -27 -28
leaf_value=-0.091836596037466522 -0.044658524598267357 0.034610995325941328 -0.080905508304237969 -0.070937421407664028 0 0 0 -0.012085666622326826 0.059531961360421236 -0.0019770335753544195 0.070361518511053239 -0.0018054895618219941 0.09244962427924977 0 -0.083846742980292613 0.10725830022035034 -0.021215709344841762 0 -0.0041825069158006184 -0.084978887575017981 0.030552907624678168 -0.0089200925912001888 -0.087840552154616863 -0.052066420234455832 0.024757513302237178 -0.003167905507011922 0.014496525138545579
leaf_weight=2.3546136608347301 1.2513738200068463 0.95814276486635197 2.3090991172939495 2.2112756241112939 0.70798963494598899 1.9336536619812248 0.81022202037274837 1.5218982584774519 1.0897843912243841 0.59435486420988848 1.7076263092458246 1.376328548416496 9.6283215489238412 0.90055159479379643 1.8325905278325061 4.3552895644679674 0.90260819345712962 1.6647173613309867 1.1088423207402227 2.0630628932267427 1.4074164424091575 1.9608513098210094 1.4609255287796306 0.96765703707933848 0.97754432260990176 0.78512918204069038 2.4097834806889296
leaf_count=33 12 10 30 26 10 16 11 13 10 7 19 12 89 10 18 98 12 17 11 31 19 17 11 13 14 8 21
internal_value=-0.000209668 0.0409474 -0.0188857 -0.00825998 0.00252561 0.01344 0.0289848 0.0460871 -0.0164195 0.0543264 0.0178176 0.0615678 0.0722267 -0.0184188 -0.0426408 0.0940903 -0.0398949 0.0818146 -0.0497789 -0.0689562 0.00493186 -0.063649 -0.072994 -0.040601 0.0133722 -0.0830211 0.0554593
internal_weight=51.2517 14.9873 36.2644 33.1247 28.8547 26.6434 21.5624 15.9691 5.59321 13.7359 8.78624 14.1913 12.6694 4.66883 3.71069 4.94964 5.08108 11.293 4.50342 2.77105 2.31002 4.26995 2.56977 1.77788 1.8781 3.13974 4.11741
internal_count=598 209 389 348 301 275 203 155 48 197 92 131 118 52 42 105 72 106 38 41 31 47 22 24 24 41 40
is_linear=0
shrinkage=0.149745


Tree=29
num_leaves=26
num_cat=0
split_feature=16 14 10 9 4 16 4 8 18 3 3 8 3 8 8 5 8 9 15 16 4 8 14 8 19
split_gain=1.76759 1.41468 1.80466 2.04098 1.20883 1.06841 1.22591 1.09976 0.963978 0.894366 0.89992 0.851262 0.842888 0.662049 0.652611 0.527494 0.464677 0.444536 0.37742 0.328125 0.315821 0.30821 0.27273 0.151219 0.046815
threshold=-0.058048427943808371 0.022670435612448782 -0.19518939355984768 -0.040360335971113277 0.35606015082320447 -0.028812682390037921 0.064262392686660952 0.33768895031399843 -1.0000000180025095e-35 -0.0037547625519874588 0.063921189879621684 -0.3019781792525274 1.3379155397168028 0.7805354246292856 1.0757664075061437 1.3081460889113494 -0.64641432594219517 -0.087548086422208113 -0.23105607398299696 0.43945144607077941 0.19992109667033162 -1.3844917831343402 0.3503395977505363 -0.64641432594219517 1.2749153632448194
decision_type=2 2 2 2 2 2 2 2 2 2 2 2 2 2 2 2 2 2 2 2 2 2 2 2 2
left_child=8 2 5 12 13 6 -2 15 9 17 14 -5 20 22 -11 -8 -7 -1 -13 -18 -4 -22 -3 -6 -19
right_child=1 4 3 11 23 16 7 -9 -10 10 -12 18 -14 -15 -16 -17 19 24 -20 -21 21 -23 -24 -25 -26
leaf_value=-0.0086054384112162763 0.055560143756863356 0 -0.0077621778731073151 0.06667716101663998 0 0.086760147267328863 -0.097901042498710858 0.030186540181382088 0.097063342680737782 -0.084930842828238443 0.041349608469023899 -0.05314534896561831 0 0.038010307036644271 0.009338287064711407 0.0043133962488498632 0.037269982459311436 0.084942765613951379 0.020605752623250997 -0.034246419641817051 0 -0.13075452153615014 -0.064408684353341822 0.092495145106089346 0.0010188201324753848
leaf_weight=0.9280580654740328 1.4653769731521604 1.7938275393098573 1.226702600717539 1.6822791956365106 0.72689343430101905 2.1441740803420544 4.0786047093570232 1.3812086209654806 3.1603710874915114 2.7290967479348174 1.5810118578374384 2.32348807528615 1.9933149181306351 1.7903528362512586 1.5294063240289686 0.76424277946352948 0.97316505014896248 2.1037364751100545 0.79867979884148299 1.191774984821677 0.56240255013107621 7.2368917828425827 2.2936199940741062 2.5950642563402653 0.73167597129940976
leaf_count=9 10 18 12 11 7 20 65 14 88 18 18 23 15 15 10 8 12 32 9 13 8 109 17 29 8
internal_value=-0.00161782 -0.0186197 -0.0352881 -0.0659614 0.0274633 0.00701249 -0.0238031 -0.0532964 0.0425072 0.0102845 -0.0226436 0.0100784 -0.0974669 -0.0125115 -0.0549907 -0.0819022 0.0561545 0.0558412 -0.0295012 0 -0.113996 -0.123996 -0.0429566 0.0817235 0.0764861
internal_weight=49.7854 37.0221 27.8223 15.8238 9.19976 11.9985 7.68943 6.22406 12.7634 9.60299 5.83951 4.80445 11.0193 5.8778 4.2585 4.84285 4.30911 3.76347 3.12217 2.16494 9.026 7.79929 4.08745 3.32196 2.83541
internal_count=598 415 329 187 86 142 97 87 183 95 46 43 144 50 28 73 45 49 32 25 129 117 35 36 40
is_linear=0
shrinkage=0.149745


Tree=30
num_leaves=27
num_cat=0
split_feature=1 4 4 0 4 14 5 4 2 13 5 1 4 13 5 12 1 8 5 12 14 13 4 4 14 12
split_gain=1.42356 1.05315 1.95691 1.1592 1.33872 1.04145 0.97225 0.774907 0.74585 0.700808 0.517572 0.496585 0.440924 0.363302 0.256198 0.184416 0.375041 0.499285 0.214917 0.252524 0.183706 0.181484 0.190175 0.167683 0.159799 0.135161
threshold=-1.1115933392949262 0.34893377284874583 0.30323650835356025 -1.0000000180025095e-35 -1.1663551658574292 0.11171988443958723 -1.2449519918725394 0.62538883964309966 2.3248593522021404 -0.11326008725006347 0.12271544687281047 0.88101102790641173 -0.76951610719388441 -0.39366071692388799 1.3081460889113494 2.0217566630508048 0.48249015446614402 0.68212509700366619 -0.35865194317281457 -0.13352127263056701 -0.24375498653769342 -0.55235933007163807 0.75944167429478437 -0.24975737314318802 -0.34109170764008062 -1.0000000180025095e-35
decision_type=2 2 2 2 2 2 2 2 2 2 2 2 2 2 2 2 2 2 2 2 2 2 2 2 2 2
left_child=5 2 3 4 9 23 -6 11 15 -2 21 -3 -5 -12 -8 16 17 -4 -18 -20 -11 -9 -23 -1 -14 -21
right_child=1 7 8 12 6 -7 14 10 -10 20 13 -13 24 -15 -16 -17 18 -19 19 25 -22 22 -24 -25 -26 -27
leaf_value=0 -0.067275902948060837 0.088931131779331943 -0.10638550134573198 0.019978355762233679 -0.003974841878148185 0.025697762240331764 0.10825815633940379 -0.0060831192035002276 0.031227498042558244 -0.0065517823654925129 0.0083967686217434976 -0.0034276223354715012 0 -0.063788548217953503 0 0 0.012501725345784387 0.00042268204053292642 -0.062363867219266754 0.03000523560028184 0.049446866733414883 0.055833594278612939 0 -0.09658027980437138 -0.0614590842293425 -0.018391389557428053
leaf_weight=0.72553036361932743 1.5290780514478686 5.1376941092312327 4.4577845344319922 1.4993645083159206 2.0125233493745318 1.2675469592213628 5.6288322601467362 0.94560181256383558 0.77054174244403917 0.80941614136099815 1.5622319066897037 0.94089990109205235 0.9591785967350005 1.3679852820932863 0.68228198401629914 0.91732362285256464 1.5156945735216139 0.70387028530240048 1.202874115668237 0.60549728386104085 0.97220735810697145 3.0344764050096265 1.2332227062433956 3.8522447235882273 2.7360217757523073 0.77953075617551848
leaf_count=6 14 72 68 18 20 12 78 15 5 7 18 10 8 14 11 11 17 8 16 6 19 31 10 59 28 17
internal_value=-0.000104875 0.00990631 -0.00670396 0.0239022 0.0485479 -0.0601137 0.0767099 0.0407353 -0.0520655 -0.0203458 0.00454008 0.0745293 -0.0266718 -0.0324379 0.100127 -0.0638116 -0.0691613 -0.092547 -0.017053 -0.0370377 0.0278029 0.0312204 0.0421987 -0.0876171 -0.0496543 0.00136297
internal_weight=47.8495 42.0041 27.782 16.8289 11.6343 5.84532 8.32364 14.2221 10.9531 3.3107 8.14352 6.07859 5.19456 2.93022 6.31111 10.1826 9.26525 5.16165 4.1036 2.5879 1.78162 5.2133 4.2677 4.57778 3.6952 1.38503
internal_count=598 521 351 203 149 77 109 170 148 40 88 82 54 32 89 143 132 76 56 39 26 56 41 65 36 23
is_linear=0
shrinkage=0.149745


Tree=31
num_leaves=28
num_cat=0
split_feature=18 10 1 16 7 2 8 2 2 10 15 15 16 2 15 13 13 2 8 7 16 19 14 14 6 19 19
split_gain=1.72796 0.818013 0.683138 0.787747 1.03323 1.04434 0.696641 0.67979 0.63495 0.628854 0.875429 0.833334 0.566048 0.493126 0.487765 0.68851 0.583793 0.462902 0.412206 0.389739 0.304389 0.159815 0.133775 0.129636 0.106471 0.0757707 0.027297
threshold=1.0000000180025095e-35 -0.32556783253950949 -1.4104839943751271 -1.0342786967407724 -0.17042172585587331 -0.4176247819171881 -1.0000000180025095e-35 -0.25993405805279218 -1.1312520419660415 -0.24182276752393553 -0.25269342851588034 -0.036431800538078138 -0.058048427943808371 1.0506131790773996 -0.17268403760357162 -0.62706744649041979 0.36745259160270327 0.15350378513589641 -0.35118334306533711 -0.47283179132119119 0.39104818180353212 -1.9026075401474121 -0.11865951068731685 0.30021509236657967 -1.0427259916828924 -1.0000000180025095e-35 1.4294975585449821
decision_type=2 2 2 2 2 2 2 2 2 2 2 2 2 2 2 2 2 2 2 2 2 2 2 2 2 2 2
left_child=2 -2 26 6 5 12 -4 22 25 17 18 13 -5 -12 15 -9 -16 -7 -11 -10 24 -8 -6 -14 -21 -3 -1
right_child=1 8 3 4 7 9 21 14 19 10 11 -13 23 -15 16 -17 -18 -19 -20 20 -22 -23 -24 -25 -26 -27 -28
leaf_value=-0.082624818032731417 -0.036290555943954944 0.0046552251037267423 -0.025521674635958971 0.019738630973655986 -0.013062829417395404 0.080898609649573267 0 0.0024513974602212913 -0.0053408812313670761 -0.0088526059027142102 -0.077381280126888247 0.044301064100229749 -0.086320665632212301 0.0015043142144766921 -0.052096591375466739 -0.11391581457150532 0.039819999563719594 -0.0062304223418772706 0.071322041287052385 0.0067257594194533137 0 0.084246045363123939 0.03192925140948713 0 0.089517643917084805 -0.029242954462065162 -0.0017810476182953843
leaf_weight=1.9566303612664335 1.1080300584435452 0.66319627407938242 1.0084367170929911 0.72334481589496169 0.83268963173031796 3.134427914395931 0.56005223095417056 0.91033474169671524 0.79676003754138669 1.0540230348706248 3.6213694224134105 0.8809128031134551 2.2515830695629151 1.8170850425958631 1.2733852900564691 3.998887799680233 1.2477583177387712 0.99621284939348687 2.2649162188172358 1.2581089753657533 1.3558242954313762 2.0187703967094413 1.0549869164824484 0.88899638503789891 7.1699124760925796 0.88725935295224079 0.73240783996880043
leaf_count=27 12 15 8 11 11 27 3 8 7 15 55 9 43 14 14 36 12 12 23 18 19 28 11 8 129 9 14
internal_value=-0.000449008 0.0416039 -0.0190626 -0.00965227 -0.0195235 0.00173617 0.0424778 -0.0553588 0.0539494 0.0225457 0 -0.0313495 -0.0524249 -0.0543848 -0.0728299 -0.0944278 -0.00424856 0.0609322 0.0477153 0.0661255 0.0736308 0.0732854 0.00986353 -0.0743078 0.0825086 -0.0139447 -0.0746868
internal_weight=46.4663 13.2391 33.2272 30.5382 26.9509 17.6329 3.58726 9.31804 12.1311 13.7689 9.63831 6.31937 3.86392 5.43845 7.43037 4.90922 2.52114 4.13064 3.31894 10.5806 9.78385 2.57882 1.88768 3.14058 8.42802 1.55046 2.68904
internal_count=598 209 389 348 309 217 39 92 197 155 116 78 62 69 70 44 26 39 38 173 166 31 22 51 147 24 41
is_linear=0
shrinkage=0.149745


Tree=32
num_leaves=27
num_cat=0
split_feature=18 19 5 10 5 16 1 13 2 12 14 5 16 15 2 9 14 10 10 10 12 12 12 4 13 16
split_gain=1.3536 0.790822 0.721039 1.14762 1.01385 1.09946 0.778474 0.935332 0.734608 0.705584 0.648507 0.622937 0.517748 0.514367 0.364027 0.33863 0.325389 0.25817 0.629949 0.18186 0.170964 0.124039 0.0878924 0.04854 0.0406916 0.0141676
threshold=1.0000000180025095e-35 0.41612538935502702 0.24347027429151785 -0.045197874109293407 -1.0568757793995618 -0.66619554485853272 -0.31455159241439123 -0.29605380234112483 -0.037507643730622514 0.085303886346818361 -0.2680230211694079 -0.26862609738421678 1.2913224887012098 -0.2635556750628345 0.052041762023547794 -0.071547814669256249 -0.38351975511581438 -0.29029258178254141 -0.19518939355984768 -0.14529346435847376 -1.2696135363624719 -0.66835575378887946 -0.56829213670283218 0.66926203485683267 -0.39366071692388799 0.05063888969963426
decision_type=2 2 2 2 2 2 2 2 2 2 2 2 2 2 2 2 2 2 2 2 2 2 2 2 2 2
left_child=2 12 4 9 5 -1 8 11 25 10 15 19 16 -9 -12 -4 -2 -3 -19 -8 -18 -20 -16 -15 -23 -6
right_child=1 17 3 -5 6 -7 7 13 -10 -11 14 -13 -14 23 22 -17 20 18 21 -21 -22 24 -24 -25 -26 -27
leaf_value=0.027325376641308151 0 -0.045000079406990155 0.010760027244008204 -0.092997840809909083 -0.066202730520996636 -0.088631997321976116 -0.060057131394015119 -0.0085199962768491427 0.032458111862676518 -0.060358590409452399 0.072555757163267481 0.040651323607593819 -0.014344656753722066 0.095110306582208648 -0.019740187851982196 -0.059695658616094029 0 0.055831109769552689 -0.047082532118615912 0 0.093390563501526122 0.01511531405046888 0.017026109724364132 0.0080725152341008227 -0.011132824514409591 0
leaf_weight=1.5468039885163305 1.2792748883366583 0.8189004287123679 1.4334006402641537 4.2293349783867589 1.9881263328716161 2.966953180730342 1.7902588453143833 0.72461960650980106 1.5326090082526196 1.9294367888942359 2.336760137230157 1.4943079249933324 0.71096647903323162 4.2249004263430923 1.058045521378516 1.1937381494790305 0.60928868502378364 1.8698378056287763 0.96260607242584217 0.89381560776382718 5.0414895918220273 0.76013119705021359 1.1596976444125187 1.0672039054334161 0.84614129923284098 0.67520346119999874
leaf_count=11 16 10 17 52 32 36 22 8 17 27 19 20 8 53 9 21 7 19 8 17 119 12 11 8 10 9
internal_value=-0.000802802 0.0367636 -0.0175772 -0.0419744 0.000805517 -0.0492028 0.0214736 0.0424419 -0.0235219 -0.00499315 0.0167222 -0.00754938 0.0629744 0.0735142 0.0462807 -0.0278991 0.0745632 -0.00478322 0.0102061 -0.044475 0.086567 -0.0276532 0 0.0869331 0 -0.060402
internal_weight=45.1439 12.8986 32.2452 13.3404 18.9048 4.51376 14.391 10.1951 4.19594 9.11108 7.18164 4.17838 7.64102 6.01672 4.5545 2.62714 6.93005 5.25762 4.43872 2.68407 5.65078 2.56888 2.21774 5.2921 1.60627 2.66333
internal_count=598 209 389 156 233 47 186 128 58 104 77 59 150 69 39 38 142 59 49 39 126 30 20 61 22 41
is_linear=0
shrinkage=0.149745


Tree=33
num_leaves=29
num_cat=0
split_feature=14 11 10 19 7 13 13 6 4 13 5 13 19 19 7 8 2 5 5 5 13 9 5 11 13 12 10 11
split_gain=1.03155 2.54164 1.40727 0.732499 0.730462 1.02924 0.683375 0.867241 0.681715 0.64641 0.578609 0.543478 0.447585 0.634322 0.376832 0.16553 0.161997 0.139887 0.168694 0.13442 0.145774 0.0807092 0.0803178 0.0742319 0.0511271 0.0477632 0.0472427 0.00330425
threshold=-0.2680230211694079 -0.43634987216063686 -0.22000787550308029 -0.4083129855791735 1.0000000180025095e-35 0.95164194508354216 0.36745259160270327 0.80736001980696348 -0.63092969982450009 -0.94145915955567749 -0.12707176382669966 0.457869337455523 0.96575097264449405 0.70811398047755647 -0.32162675858853224 -0.74482465356781447 1.0000000180025095e-35 2.2279982473264943 0.26881356236152504 -1.4184635216348134 -0.90988778893728128 -0.03787785498640648 -0.835946113009159 0.2420053774113827 -0.45599210083845709 -0.092763537225756712 0.54090030615807605 -0.66876007120304648
decision_type=2 2 2 2 2 2 2 2 2 2 2 2 2 2 2 2 2 2 2 2 2 2 2 2 2 2 2 2
left_child=2 8 3 -1 5 14 7 -4 -2 -5 21 16 13 15 22 -11 -6 18 -9 -16 -21 -8 -3 -12 -20 -7 -13 -10
right_child=1 4 6 9 11 25 10 17 27 12 23 26 -14 -15 19 -17 -18 -19 24 20 -22 -23 -24 -25 -26 -27 -28 -29
leaf_value=0.072085518194933751 0.015851925629494723 0.021059401915653093 -0.093963024813805932 0.047228318685470123 -0.057408799565514514 -0.031380379038005723 0 0.012708110746138541 -0.083723802356536536 0.0011292366942936987 -0.054970613198940338 0.04822745635273723 -0.072312494161012042 0.058839977242577099 0 -0.054426134787451411 0 0.025824920725543883 0 0 0.096482966409806414 0.054253379191216242 -0.016492930442002663 0 -0.046137303526053351 0 0 -0.0074227933268257319
leaf_weight=2.1862810496240854 1.317263565957546 0.71149460040032864 6.6986405309289676 1.3320047762244938 1.4259387245401738 0.80055527575314045 1.1189388744533064 0.76498142722994167 3.3304784186184402 0.80977609008550611 0.8313032155856479 0.91954677551984765 1.6283933771774171 0.91446940228342999 0.46323220431804735 1.0860080514103205 0.82618194445967663 0.74602806009352196 0.87553014047443911 0.48018872831016857 8.7221342250704712 1.089453684166074 0.72941518761217838 0.84220386110246181 0.99863314814865523 0.78427572734653839 0.40905606001615524 1.0203419979661732
leaf_count=23 16 8 99 12 16 11 15 8 37 10 11 20 30 7 4 19 12 7 13 7 126 11 15 11 15 12 8 15
internal_value=-0.00129393 0.020367 -0.023732 0.0218607 0.0500722 0.0652092 -0.0505317 -0.0683902 -0.0537001 -0.00708309 0 -0.00365439 -0.035569 0.00121182 0.080296 -0.0361827 -0.0415556 0 -0.0180105 0.089414 0.0927659 0.0408642 0 -0.0425377 -0.0361815 -0.020975 0.0410235 -0.0765496
internal_weight=43.8627 21.9401 21.9226 7.95693 16.272 12.6913 13.9657 10.0838 5.66808 5.77065 3.8819 3.58072 4.43865 2.81025 11.1065 1.89578 2.25212 3.38517 2.63914 9.66556 9.20232 2.20839 1.44091 1.67351 1.87416 1.58483 1.3286 4.35082
internal_count=598 307 291 101 239 183 190 142 68 78 48 56 66 36 160 29 28 43 36 137 133 26 23 22 28 23 28 52
is_linear=0
shrinkage=0.149745


Tree=34
num_leaves=26
num_cat=0
split_feature=18 5 6 12 8 10 12 14 12 2 12 11 13 12 1 1 2 13 7 8 10 14 14 10 10
split_gain=1.19821 0.661337 1.49527 1.51892 0.78633 0.765727 0.680262 0.612238 0.746341 0.606191 0.790226 0.575765 0.663405 0.517731 0.512464 0.400945 0.329006 0.278418 0.233071 0.204315 0.175138 0.0949228 0.0804373 0.0539409 0.0189728
threshold=1.0000000180025095e-35 0.24347027429151785 -0.18884014022603604 0.27715060106671791 -0.59720916212938546 -0.045197874109293407 0.58931742229754625 -0.26124521017373253 -1.2696135363624719 0.41439368353028289 -1.4976817481748095 0.094752526240893267 -0.77480625780846946 -1.0000000180025095e-35 0.18359949938594328 0.18359949938594328 -0.58270716305361148 -0.78631219640897865 0.13198833960944462 0.33768895031399843 -0.23571459775809608 -0.26887488592901915 -0.23903896976324857 0.033956572816210763 -0.11471466334908553
decision_type=2 2 2 2 2 2 2 2 2 2 2 2 2 2 2 2 2 2 2 2 2 2 2 2 2
left_child=1 2 3 9 -4 11 16 15 -9 10 -1 17 -13 -14 -5 19 -6 -3 -7 20 -2 24 -8 -22 -17
right_child=7 5 4 14 6 18 22 8 -10 -11 -12 12 13 -15 -16 21 -18 -19 -20 -21 23 -23 -24 -25 -26
leaf_value=0.0052946488964154634 0.00099927681383330793 0 -0.035825383796046023 -0.019273053480749338 0 -0.096599653981837036 -0.024836673822817002 -0.018135062976400159 0.095188281858151882 0.0016525710983199997 -0.10597450844813305 -0.035577265480667898 0.07158300305515608 -0.015505601104623561 0.066716007952747167 0.049562102059334895 0.099760353599396903 -0.071032017918982712 0 0.011582344112483571 -0.06167093937785359 0 0.010230990273737767 0 0
leaf_weight=1.2031127158552415 0.93098789453506459 1.592955273576081 0.67618000041693438 1.0340494541451337 0.78593162540346373 3.1618957892060275 0.76651390176266432 0.70808755792677303 3.3334513097070158 1.750852766446769 4.5220517255365857 1.5847283955663432 2.8510702941566697 0.98109395802021238 2.139623885974288 1.8914595022797589 4.0048365741968182 1.703884307295082 0.74870750494301308 1.1953382454812524 1.3537501506507386 0.98738935217261303 0.94686405546963193 0.75511160120367993 0.95309108868241321
leaf_count=11 15 19 16 16 13 38 13 8 100 18 61 19 26 10 23 21 45 30 14 15 17 8 17 10 15
internal_value=-0.00128764 -0.0175047 0.000609532 -0.0320653 0.0480573 -0.0413869 0.0651048 0.0350227 0.0723733 -0.0654808 -0.0842072 -0.00878426 0.0178231 0.0478364 0.037763 0.00446095 0.0874389 -0.0473608 -0.0848081 -0.0210599 -0.0376421 0.0340043 -0.0043392 -0.0525245 0.0431344
internal_weight=42.563 30.4544 17.83 10.6497 7.18033 12.6243 6.50415 12.1087 4.04154 7.47602 5.72516 8.71373 5.41689 3.83216 3.17367 8.06713 4.79077 3.29684 3.9106 4.23519 3.03985 3.83194 1.71338 2.10886 2.84455
internal_count=598 389 233 129 104 156 88 209 108 90 72 104 55 36 39 101 58 49 52 57 42 44 30 27 36
is_linear=0
shrinkage=0.149745


Tree=35
num_leaves=27
num_cat=0
split_feature=16 14 10 9 3 5 16 6 13 18 3 3 1 5 9 5 13 12 15 14 16 6 13 16 15 14
split_gain=1.39754 0.863963 1.0815 1.4881 0.734011 0.551179 0.515394 0.736462 0.702915 0.496588 0.585991 0.501157 0.489307 0.458767 0.452766 0.378489 0.355139 0.30082 0.253223 0.226642 0.211757 0.205145 0.204924 0.189524 0.186461 0.110855
